437 400 
similarity -0.114376 0.504693 0.0683048 -0.179528 -0.0137168 0.0130903 -0.199253 -0.0360901 0.0264888 0.302117 -0.175879 -0.241222 0.0199349 0.29657 -0.319546 -0.0343017 0.191371 -0.0853475 0.0142528 0.189767 -0.393552 0.383676 0.0963888 0.0765771 0.000107263 -0.307446 -0.369793 -0.198818 -0.470578 -0.00734262 -0.184767 0.14501 0.279549 0.108086 0.17574 0.285928 -0.0641022 0.0602122 0.377068 -0.0970308 -0.0747133 -0.166284 0.0198975 0.184171 -0.178983 -0.116362 -0.0436074 -0.00110033 0.368009 0.240416 0.188878 -0.377025 -0.228269 0.0658097 -0.0867633 -0.0206838 -0.030404 0.136318 0.139178 -0.0730893 -0.0586909 -0.0859688 0.0325893 -0.0647184 0.0203064 -0.135354 0.116757 0.0511069 0.127315 0.0525833 -0.159371 0.0595023 -0.0294965 0.325559 -0.145551 0.0685345 0.0951657 -0.11389 0.195765 0.101619 0.203063 -0.115056 -0.0809779 -0.17754 0.170743 -0.270099 -0.350624 -0.0423982 0.116805 0.0967658 -0.0364634 -0.197672 0.318287 -0.101007 0.0131596 -0.0405616 0.233988 0.0464927 -0.0983019 -0.164055 -0.468893 0.193692 -0.240961 -0.00195819 -0.0523015 -0.228547 0.0203373 0.265303 0.085861 -0.223636 -0.17697 -0.0275381 0.0519108 -0.467481 -0.00596383 0.14022 -0.0746468 -0.0450566 -0.017401 -0.113381 -0.0547748 0.0470793 -0.201201 -0.116148 0.200179 0.0680956 -0.0666017 0.117771 -0.00461604 0.125542 0.329088 -0.353615 0.126633 0.0716062 -0.0683748 -0.303731 0.327559 -0.142697 -0.400147 0.129898 -0.619012 -0.103406 0.297237 0.0606138 0.399074 0.15239 0.0653893 0.571777 0.0632807 -0.0576949 0.344761 0.203952 -0.340305 -0.310975 0.227517 0.146805 -0.0267554 0.134798 0.276668 0.0373802 0.128563 -0.123641 -0.0621246 -0.113788 -0.349731 0.048031 -0.242544 0.163209 0.244536 0.168446 -0.580372 0.068405 -0.187473 -0.0800509 0.191642 0.0476265 0.117059 0.376512 0.441149 -0.0409865 0.0547068 0.204541 -0.0273363 -0.190985 -0.168034 -0.168386 0.0550332 -0.188876 -0.109289 -0.0753106 -0.152494 0.235169 -0.128385 0.187837 -0.071641 -0.233792 0.207873 -0.0296441 0.317512 -0.093876 -0.00895444 0.321335 -0.0656424 -0.358537 0.0534529 0.105866 0.0401808 -0.0844074 -0.304228 0.260784 0.020906 0.257784 0.08481 -0.120693 0.12777 0.0103754 -0.23293 0.255576 -0.0664201 0.102907 0.200068 -0.0468204 0.0755301 0.15699 -0.0253809 -0.118493 -0.0254679 0.211903 0.159676 -0.169807 -0.238354 0.36363 0.0624727 -0.0554947 0.0729952 0.0379462 -0.179031 -0.351909 -0.105256 -0.0606653 0.105681 -0.00822038 0.290586 0.369646 -0.146983 -0.0352987 0.0902949 0.147939 -0.318333 -0.125525 0.0864868 -0.0479316 -0.0116863 0.144403 -0.431845 0.0421675 0.0155572 -0.23116 0.486192 -0.10724 0.19727 -0.18289 -0.263468 0.168282 0.158874 -0.000183778 -0.245263 -0.103197 0.0101445 -0.296628 0.129434 0.174692 0.0791788 0.216039 -0.281219 -0.109677 -0.0305152 -0.12919 0.20715 -0.162972 0.0916431 -0.0115122 -0.137968 0.06218 -0.10431 -0.237908 -0.0502553 -0.109786 0.0505874 -0.294859 0.0927021 -0.043332 0.0597048 -0.00857703 -0.210739 -0.0164536 -0.345546 -0.216805 -0.0540474 0.253855 0.245961 -0.425954 0.0708978 -0.229846 -0.0111728 0.0490304 0.285884 0.188218 -0.0237754 -0.00270568 0.368151 -0.0606006 0.0115451 0.184166 0.202738 0.438246 0.175163 -0.101746 0.081078 -0.0622775 0.114219 0.225047 0.0494349 0.0105919 -0.120485 -0.0995721 0.0837584 -0.00270871 0.17383 -0.241968 -0.018249 0.144155 -0.0321393 -0.0965241 -0.479288 0.123229 -0.0350843 0.186122 -0.0474958 -0.151275 0.22045 -0.103918 -0.264114 0.0880779 -0.16141 -0.247792 0.067653 -0.281808 0.0446757 -0.055126 0.0362914 0.00882387 -0.07916 0.226956 -0.270631 0.321968 -0.284164 0.134628 0.051586 0.324817 -0.138644 0.203258 -0.0269623 0.0668826 0.166906 0.178258 -0.0349482 -0.183266 0.335916 -0.252913 -0.0927762 -0.0649346 -0.160286 0.0147014 0.131915 0.222183 -0.153582 0.0140892 0.266409 -0.237221 0.012061 0.29204 0.0822219 -0.172432 0.15694 -0.0652743 0.153598 0.0918235 0.0207286 -0.000701191 0.307056 -0.532872 -0.391688 -0.644583 -0.464371 0.108332 0.00922439 0.180628 0.187886 0.141369
dollar 0.478541 0.095484 -0.400122 -0.548278 0.203128 -0.115362 0.0200266 -0.110911 0.135113 -0.27387 0.324662 0.0184348 0.0615906 0.0845777 0.034164 -0.204206 0.373854 -0.0609131 0.00132119 -0.0866203 0.269626 -0.195298 0.229259 0.411936 -0.241457 -0.450406 0.185342 0.0415556 -0.0862289 0.040385 -0.165518 0.0883105 0.162446 -0.012372 0.0941335 -0.31502 -0.0621515 0.394864 -0.110934 -0.100097 -0.318246 0.0825164 -0.247318 0.146008 -0.120244 -0.127254 -0.0544696 -0.535267 -0.0312154 0.287521 -0.191431 0.675393 -0.00663681 0.0249264 0.156457 0.0623099 0.253047 0.0130038 0.358651 -0.194977 -0.286703 -0.0377625 -0.174079 0.126441 -0.169216 0.0690797 -0.270263 -0.0664027 -0.0334545 0.147157 0.407963 0.231392 -0.131086 0.14907 -0.16713 0.161441 0.556976 -0.16706 0.379663 0.146836 0.187364 -0.0151887 0.0552549 0.00763011 0.146953 -0.216706 -0.249935 0.00974936 0.0187348 -0.0828343 0.0873164 -0.261412 -0.229624 0.122402 0.231035 -0.103211 0.247 -0.104546 -0.427626 -0.0294605 -0.267785 0.250882 0.264136 -0.248796 -0.342675 0.0471757 0.1203 -0.067064 -0.261348 -0.449024 -0.30143 -0.219762 0.190929 -0.00282204 -0.0324141 -0.18023 -0.151385 -0.278312 -0.114199 0.145657 0.303237 0.12489 -0.294284 0.0671103 0.103461 -0.306577 0.2142 0.14715 0.42247 -0.269445 -0.301812 -0.0587286 -0.0366229 -0.451085 -0.0223282 -0.520275 -0.492723 0.000452673 0.00601798 -0.116323 -0.404159 -0.0259986 0.0859217 -0.16003 -0.269043 -0.105149 0.158108 0.0881638 0.663823 0.00927738 0.0138432 -0.0267692 0.0758491 0.0328818 -0.106909 0.312152 -0.0473468 -0.117512 0.250555 0.181318 -0.0241808 -0.0977718 -0.543982 0.229882 0.223154 -0.071078 -0.113348 0.176508 -0.0635542 0.00337743 -0.163902 -0.666576 -0.109917 -0.293786 0.236551 0.0812734 -0.138317 -0.330055 0.121709 -0.355069 -0.00312676 -0.030185 0.711738 -0.0256287 -0.130349 -0.259812 0.40299 -0.0598209 0.486731 0.0175199 0.428444 0.0697558 -0.290582 -0.451957 -0.381366 0.323278 -0.0533296 0.0127557 -0.00469464 -0.192083 0.29879 0.156077 0.301769 -0.199981 -0.28535 -0.21669 -0.110264 0.0423722 -0.459139 0.0852953 0.280094 0.0663559 0.0721775 -0.185995 0.304713 0.243306 -0.106935 -0.0352066 0.0566832 -0.222136 -0.100103 0.307214 0.269134 -0.354989 0.252178 -0.38582 0.33538 -0.0931898 -0.454564 -0.463575 -0.348708 0.332713 0.207324 -0.0601531 -0.256004 -0.316295 0.386467 0.133092 0.0297465 -0.28048 0.103437 -0.241163 -0.282 0.151719 0.542885 -0.0382679 0.0752387 0.0855918 -0.0194212 0.201271 0.0639876 -0.128267 0.858361 0.129575 0.173438 -0.309925 0.0493796 -0.207886 0.123785 -0.147122 -0.0730154 0.137833 -0.296296 -0.144062 -0.571655 -0.0216077 0.219234 -0.111306 0.429861 -0.403025 0.104751 0.292948 0.173622 0.17105 -0.752294 -0.316032 -0.232259 0.198043 0.261234 -0.235236 -0.349184 -0.0804517 -0.0273867 0.148076 -0.0676141 0.267343 0.681594 -0.12215 -0.365009 0.104331 -0.477786 -0.411307 -0.190063 0.348803 -0.0325467 -0.0271032 -0.357108 0.175385 -0.422716 0.00830582 -0.304461 -0.227818 0.348496 -0.248202 0.100868 -0.231853 0.0612636 -0.227294 0.0322312 0.239562 -0.345923 -0.0679718 -0.150521 0.0554706 -0.219729 0.172978 0.187494 0.207375 -0.258607 -0.0929975 0.128206 -0.32626 0.239458 -0.0757355 -0.0671504 0.315573 -0.0670747 0.0200757 0.227551 -0.28657 0.0196454 -0.0117303 0.329496 0.168397 -0.394891 0.204991 0.333436 0.012074 -0.359923 -0.11689 -0.172238 -0.459882 -0.105765 0.0912867 -0.613833 -0.216853 0.49367 -0.111393 -0.113161 -0.241675 0.116782 -0.0688717 0.0147189 0.0721617 -0.00124623 0.569449 -0.0457412 -0.29295 -0.3274 -0.0575617 -0.596432 -0.163874 -0.0787376 -0.0209592 0.00742953 -0.22153 -0.0136637 -0.0241511 -0.138435 0.00924651 0.149847 -0.150665 0.126808 -0.153138 -0.324612 -0.354991 0.00566867 -0.234095 0.142588 -0.272604 -0.1628 -0.00252696 -0.0518918 0.0302849 0.0397596 -0.310184 0.238193 0.0846767 0.30344 0.191838 -0.099218 0.37072 0.0851762 -0.0729115 -0.0415033 0.0752827 -0.194667 0.312902 0.0147872 0.0725367
focus 0.149141 0.317578 -0.0226044 0.0297214 -0.033698 -0.12208 -0.254291 -0.241397 -0.171709 0.133293 -0.00715958 0.175559 -0.38642 -0.0892881 0.12539 -0.10409 -0.075068 -0.356683 -0.0192484 0.294286 -0.183561 0.272747 -0.0657838 -0.0986327 0.162714 0.107085 0.00272354 0.0863462 -0.0279579 0.0818935 0.301706 -0.128162 -0.00367978 -0.164838 0.0827958 -0.140866 -0.116168 0.227341 0.241515 -0.317209 0.00544408 0.25203 -0.0882806 -0.0699867 -0.4078 0.0382792 0.103996 0.039382 0.135986 0.107563 0.0484771 0.302014 0.242472 -0.173126 -0.149044 0.315829 -0.0527759 0.0373618 0.069126 -0.173828 -0.310094 -0.327089 0.0100721 0.363378 -0.314151 -0.091887 -0.368299 0.0529553 0.436035 0.248856 -0.419306 -0.0841204 -0.023727 0.367481 0.0616336 0.23448 -0.0933222 -0.203586 0.0377761 0.137735 -0.24746 0.0395835 -0.120033 -0.0252626 0.0947669 -0.259047 0.0314273 -0.0776072 0.28099 0.115894 -0.0411606 0.214425 -0.0835716 -0.0934849 0.0464196 -0.00484523 -0.0815693 0.162751 -0.0296318 -0.0796743 -0.0796629 0.425283 0.402935 -0.178634 -0.0434208 -0.0440144 -0.0079889 0.0676522 0.0492403 -0.141845 -0.193276 -0.0481214 0.0052865 -0.216464 0.0753927 0.107415 0.0267809 -0.00667733 -0.0158871 0.0376984 -0.121215 -0.164659 0.323111 0.288107 -0.391376 -0.31209 -0.0490704 -0.158893 -0.14606 -0.120837 0.272669 -0.363569 -0.202335 -0.213446 -0.0280866 -0.0769598 0.0969411 0.142247 0.126156 -0.0975113 0.245951 -0.17059 0.299 0.0696127 -0.00957991 0.190102 -0.237273 0.544035 0.0754502 -0.172811 -0.142927 0.276816 -0.0378899 -0.0726554 -0.241694 0.602406 0.165491 -0.179135 -0.00547395 -0.012388 -0.175152 -0.0555493 -0.107936 -0.0512866 -0.323696 0.172745 0.191781 0.0412527 -0.178176 -0.0760419 -0.0847058 -0.295661 -0.0827477 -0.134151 0.010239 0.126482 -0.107701 0.0222186 -0.292835 -0.141523 -0.110872 -0.0809016 -0.0714506 -0.217754 -0.0129185 -0.026527 -0.231764 0.132535 0.0589207 0.247887 -0.0169995 -0.0769211 0.0952865 0.208755 -0.164936 0.250616 -0.159451 -0.270157 -0.185035 0.0120857 -0.0390771 -0.0482892 -0.0195068 -0.111974 -0.0685501 -0.0717929 -0.123395 -0.31086 -0.236482 -0.144318 -0.0633178 0.279365 0.0341387 -0.00143249 -0.00298409 0.241013 -0.0607292 -0.0868451 -0.0672951 -0.142291 0.232286 -0.230524 0.274404 -0.0997648 0.103702 -0.126971 0.0558194 0.0203972 -0.0417712 -0.0473563 -0.253819 -0.0818832 -0.101559 0.208177 -0.29371 -0.228637 0.253487 0.0491068 0.0321102 -0.124568 0.134905 -0.0856971 0.391972 0.0624036 0.0497317 -0.240375 -0.0165632 -0.0582887 0.0177998 -0.248018 -0.197597 -0.269448 -0.156777 0.3039 0.160568 -0.295913 0.207892 0.305345 0.259136 -0.192145 0.0537264 -0.161256 -0.139328 0.0156588 0.0928654 -0.0737287 -0.0326219 -0.0554315 0.38282 0.0428018 -0.437579 0.0373239 -0.0656546 -0.0666597 -0.427993 0.311248 0.044309 -0.0181455 -0.281898 0.010284 -0.0266974 0.00496308 -0.331053 -0.0591777 0.0127648 -0.120201 0.271727 0.179928 0.0766796 0.00108085 0.16084 -0.182497 0.0337967 -0.082186 0.155609 0.0699023 -0.488152 0.150157 1.86408e-05 -0.112489 -0.221412 -0.155507 -0.0525092 -0.120992 0.0876537 0.010261 0.215229 -0.0421938 0.0461933 0.139776 -0.0955309 -0.301519 -0.371668 0.166566 -0.197194 -0.270919 -0.151609 0.206822 0.0992621 -0.321417 0.0609693 0.00939029 0.176488 -0.0518876 0.520977 0.391301 -0.0775441 0.00156462 -0.0434617 0.0162734 0.168066 0.329838 0.098914 -0.187815 -0.0690946 0.186371 0.231448 -0.138583 -0.111275 0.219853 0.177638 -0.0730072 0.0724872 -0.00247335 -0.238056 -0.0595688 0.130195 -0.0805848 -0.151723 0.100343 0.122111 0.0396696 0.0265069 0.0564856 -0.160876 0.0846552 0.115816 -0.115842 -0.077351 0.0746536 0.0656428 0.118537 -0.00244317 0.237411 -0.10437 0.0347534 -0.0311963 0.0119487 -0.231349 0.14492 0.237739 0.096302 -0.0310782 -0.246389 -0.0391657 -0.0152694 -0.320125 -0.0493143 -0.00213148 -0.0948489 0.0775993 0.0332558 -0.00553727 0.13309 -0.1176 0.0953607 -0.0168765 -0.156287 0.169782 -0.0212439 -0.0613851 0.156077 -0.243447 -0.479169 -0.48008 0.326819 -0.125451 0.35118 0.341806 0.214724
month 0.0108276 0.0628106 0.32549 -0.0777187 0.250629 0.297496 -0.200271 0.0102827 -0.155952 -0.248077 0.107938 -0.244169 0.200848 0.132254 0.0345615 -0.131353 -0.133779 -0.0708765 0.29398 0.174802 -0.0361546 0.102801 0.352215 0.0299695 -0.136847 -0.200202 -0.166605 -0.0928738 -0.0400452 -0.243188 -0.0866148 0.176639 -0.0457105 -0.169473 -0.151102 0.0919743 0.303886 0.069892 -0.174865 -0.106533 -0.347175 0.146539 -0.0803621 -0.044875 -0.0695031 -0.00541398 0.0835217 0.118209 0.215419 0.062535 0.251324 -0.116044 0.0618577 0.011042 -0.0371925 0.141046 -0.0371985 0.224969 0.0629782 -0.182987 0.187702 -0.0636172 0.045404 -0.00801956 -0.163556 -0.0139481 -0.16084 -0.10506 0.0594266 0.161152 -0.058273 0.108623 -0.0229215 -0.0661807 -0.0604113 -0.0615753 0.0368298 0.23272 -0.198674 -0.116537 -0.145032 -0.0104624 0.00484489 -0.194074 0.229415 -0.175824 -0.276158 -0.0727173 0.47908 -0.0889119 -0.18072 -0.160799 -0.101159 0.168338 0.162415 0.249101 0.0622765 0.00612852 -0.201037 0.150426 0.102988 0.345558 0.00798453 -0.103678 -0.0303692 -0.160819 0.142193 0.0719257 -0.0238018 -0.147802 -0.101379 -0.136512 0.0271281 -0.122278 -0.0764892 -0.304478 -0.145742 -0.17802 -0.104806 0.130682 -0.0434861 0.227726 -0.0438004 0.128608 -0.109003 0.0494819 -0.0309606 0.0779987 0.22607 0.14157 0.141602 -0.175806 -0.259545 -0.0417047 0.0863248 -0.128809 -0.0406953 0.0440688 -0.192729 0.0390652 0.138672 0.20099 0.184373 -0.181674 0.0718512 -0.170374 0.323537 0.0782347 -0.110805 -0.131032 -0.261152 0.270552 0.252733 -0.0360278 -0.0142625 0.271351 -0.137255 -0.306132 -0.280757 -0.0155689 -0.0574343 0.238107 -0.159089 -0.0636303 0.267571 -0.0460048 0.055769 0.0506748 0.0419144 0.257308 -0.190611 0.13129 0.132972 -0.124328 0.109513 -0.204398 0.0691342 0.0915461 0.0805899 -0.352672 0.191467 0.0100015 -0.0548922 -0.00542964 -0.221532 -0.498894 0.108145 -0.125821 0.240221 0.044992 0.0612476 -0.2377 0.156103 -0.188065 -0.200972 -0.0132316 0.184965 -0.00203098 0.216572 -0.217143 0.228613 0.162848 0.415717 -0.224993 -0.0932899 0.0577736 0.228974 -0.165439 -0.208389 -0.172133 -0.344899 0.12681 -0.233346 0.0537646 0.142732 0.0267287 -0.017271 -0.188716 0.103745 -0.291014 0.228412 0.311082 0.0062148 -0.166302 -0.073702 -0.413089 0.230221 0.27511 -0.127128 -0.386822 -0.121485 -0.108482 0.0394271 -0.0552171 -0.0149332 0.0089635 -0.119914 -0.362394 -0.36965 -0.0257413 -0.0173071 0.0300162 -0.468117 0.0913299 0.379766 0.147828 -0.182355 -0.0679802 -0.191719 0.118325 -0.0148814 -0.0919474 0.167263 0.0174616 0.122968 -0.0271262 -0.110969 -0.0226767 -0.146548 -0.26888 0.0964695 0.237777 0.10374 -0.180685 -0.073119 -0.0527647 -0.0705983 -0.0760203 0.147259 -0.0837788 0.0773542 -0.232294 0.0127618 0.140482 -0.18475 0.0745699 0.150059 -0.048194 0.0482534 -0.0594878 -0.0316698 -0.164582 -0.242741 -0.188423 0.140624 -0.116273 -0.178877 -0.0746558 -0.164526 -0.0879567 0.0954515 0.160312 -0.219186 0.145796 0.126359 -0.120187 0.258589 0.0011682 0.155316 -0.347273 0.106715 0.0986993 -0.115642 -0.00960373 -0.121203 0.066821 0.110433 -0.0720973 0.0842228 -0.120421 -0.180222 -0.0491606 -0.159658 0.0878026 0.06087 0.137351 0.0377128 0.190869 -0.145493 0.0246143 -0.270267 -0.115492 0.0352428 -0.232039 0.0271938 0.145407 -0.0835153 0.0460068 -0.0918189 0.187055 0.113627 -0.0335745 -0.218205 0.0757525 0.0101974 0.305286 -0.143744 0.14976 -0.0136985 0.161252 0.120334 -0.0895399 0.105492 0.208175 -0.109982 -0.102925 0.100845 -0.137054 0.198772 0.0583869 -0.102926 -0.130356 -0.268182 -0.238687 0.116269 0.400556 0.0437488 0.110141 -0.00370064 0.0203554 0.0374197 0.14369 -0.0209896 0.0643098 -0.146088 0.206804 0.0287422 -0.030701 -0.227698 0.0693746 0.0597706 0.166505 0.0247861 0.108968 -0.120084 -0.0794665 -0.0851131 -0.0119615 0.144603 -0.113429 -0.268724 -0.218547 0.25035 -0.0304496 0.0940199 -0.200944 -0.0669794 0.174135 -0.158046 -0.246089 -0.118295 -0.199001 -0.202706 -0.195454 -0.110984 0.10029 -0.0471207 0.0837498 0.340817 0.35846
mile -0.0908409 0.222931 -0.0371402 0.0694931 -0.169774 0.0785541 0.16279 -0.0217282 0.378515 -0.0388928 0.0912313 -0.199476 -0.250313 0.0887744 0.146044 -0.180308 -0.223651 0.111221 -0.144687 0.310984 0.129347 0.0893776 0.0460379 0.427205 -0.182734 -0.371451 0.201085 -0.368211 0.0512612 -0.393345 -0.209289 0.281684 0.063381 0.0272328 -0.169383 -0.34896 -0.242979 0.102808 0.226273 -0.349426 -0.0720438 -0.242168 -0.148706 -0.0873893 0.0353721 0.165027 -0.321594 0.0464551 -0.282314 -0.0183885 -0.411832 -0.0714087 -0.178457 -0.228603 -0.268726 0.200452 0.165306 -0.455663 -0.0910966 -0.0788908 -0.0704879 0.140642 -0.260082 -0.0353095 -0.0822904 -0.0392727 -0.0578688 0.169851 -0.242691 0.222086 0.407994 0.0352572 -0.139589 -0.0128551 -0.0954342 0.168449 0.293815 0.057369 -0.470657 0.475683 -0.0714811 -0.111161 0.0731676 -0.204912 -0.401364 -0.351323 -0.137847 -0.0242659 0.0477588 0.242656 -0.437068 -0.107199 0.203626 0.0663679 0.0593451 -0.00734736 0.413444 -0.061205 -0.828847 -0.403353 -0.0924383 0.650882 0.365177 -0.0823585 0.35572 -0.0938769 0.246538 -0.0581352 0.223723 -0.010775 0.119086 -0.0558608 -0.361972 0.0744385 -0.0638491 -0.349138 -0.0436851 0.00756016 -0.0222869 0.116066 -0.355612 -0.163414 0.12855 0.0788212 -0.381471 0.122464 0.0570917 0.328887 0.0386648 0.193398 -0.00951033 0.160462 -0.223865 0.235808 -0.0739257 0.140856 -0.0720379 -0.224982 -0.399471 0.707671 0.475614 -0.683949 0.693023 0.259512 0.104148 0.376964 -0.0042455 0.234371 -0.0160261 -0.263784 0.334069 0.0806936 0.0371573 0.274297 0.29485 -0.120562 -0.227861 -0.212633 0.00526985 0.139599 0.162807 -0.213968 -0.130717 0.251786 0.166733 -0.399128 -0.383344 0.108961 -0.149947 0.0535187 -0.29186 0.293412 0.0183896 -0.154498 -0.0104787 -0.338795 -0.0393222 -0.0430524 0.492284 -0.525799 0.297519 0.372653 -0.306745 0.016004 0.187377 -0.226256 -0.168925 0.381522 -0.102905 -0.200415 -0.291174 -0.11881 -0.111473 -0.045994 -0.282629 0.0461223 0.319495 0.2363 -0.015799 0.0602828 0.252464 0.221782 -0.223294 -0.243866 -0.176278 0.429475 0.334198 0.113014 -0.381937 -0.287126 0.0158388 0.0877739 0.214685 0.21905 0.520437 0.115637 0.0936197 0.0579174 -0.434297 -0.152521 -0.214063 0.242715 0.177746 -0.108211 0.0271762 0.379474 0.237578 0.0761922 -0.131423 -0.165894 0.0577015 -0.0440104 -0.0658702 -0.269789 -0.306377 0.329959 0.20329 -0.184255 0.195687 0.222862 -0.19637 0.334293 -0.400871 -0.0539279 0.326491 0.113244 0.28007 0.276542 0.261976 0.19997 -0.162263 -0.264612 0.231227 0.133913 0.110176 -0.20288 -0.286615 -0.0488632 0.0276773 -0.0822839 0.074632 0.129095 0.00288456 -0.222855 -0.058323 -0.267803 0.221109 0.0405408 0.583617 0.0513983 0.204308 0.380849 -0.0381852 -0.0658433 0.132635 -0.346082 -0.13452 -0.147684 0.351333 -0.222637 0.135579 0.249559 0.125148 0.243612 -0.487717 -0.42783 -0.207801 -0.213469 0.222345 -0.490797 -0.126554 0.0922361 -0.0523058 0.20751 -0.11549 -0.353922 -0.0108887 0.097656 -0.294278 -0.0260719 0.0304215 -0.205786 -0.122466 0.202775 -0.136683 -0.0474388 0.0533015 0.198453 0.202037 0.0786088 -0.0996258 0.23907 0.0619823 -0.0865448 0.0716756 -0.0844811 -0.235719 0.134585 0.430146 -0.246961 0.169702 -0.0965136 0.413485 0.0195508 -0.417348 0.401086 -0.400669 0.476372 -0.247321 0.0566231 0.192099 -0.144837 0.247944 0.0071958 -0.192716 0.407199 0.111555 0.0901121 -0.304132 -0.144461 -0.879537 -0.0987056 0.110368 -0.121148 -0.487787 0.354897 0.0715456 0.0988561 0.0493504 0.0114241 -0.110948 -0.141468 0.0103184 -0.172709 -0.276874 0.108207 0.187657 -0.553807 -0.23856 0.326741 -0.363428 -0.011186 0.112747 -0.0672463 -0.177404 0.343898 0.189346 0.448184 -0.260763 -0.0960079 0.0298607 0.273288 -0.0988216 0.301071 -0.118395 0.259349 -0.223369 -0.181594 0.208031 -0.34057 0.226338 0.004767 0.0706015 -0.288239 0.183193 -0.0143909 0.131361 0.0173832 0.0718586 -0.137979 0.254928 -0.00425355 -0.386631 -0.478528 -0.345584 0.0598831 0.118399 0.20829 -0.174988 -0.0411639
computation 0.277031 0.394206 -0.217341 -0.0144393 -0.170718 0.0231803 -0.0264956 0.0366851 -0.0259897 0.0368578 0.00856527 -0.174468 -0.138943 -0.326636 0.0770345 -0.0191962 -0.151527 -0.100453 0.0382114 -0.00227062 -0.196237 0.201872 0.105318 -0.00800282 0.0865224 -0.127861 -0.164523 0.196832 0.0249528 0.132426 0.175359 0.00657937 0.133402 -0.00272615 0.209991 -0.0351352 -0.066935 -0.0273382 0.242617 -0.0868516 0.151353 -0.105932 -0.151041 -0.0634136 0.109302 -0.207073 -0.110406 0.0073383 0.181883 0.0885901 -0.0569948 -0.0514757 -0.0246861 0.0310941 -0.101925 -0.190268 0.121462 0.0374264 -0.0636317 -0.0910886 -0.172109 0.0265163 -0.0327954 0.211991 -0.137107 -0.0588605 -0.0186173 -0.260161 0.142511 0.00900697 -0.057975 0.0482648 -0.181433 0.0568014 -0.176984 0.0511663 -0.0901657 0.1437 0.457631 0.0924712 0.157746 -0.293174 -0.0572624 -0.134451 -0.0674124 -0.0672855 -0.150317 -0.104907 0.164054 -0.105181 0.00534344 0.0873862 0.0794341 -0.113005 -0.0487319 -0.0934132 0.0348345 -0.0837395 -0.0460069 0.1071 -0.0198622 -0.0487933 0.0375337 -0.132811 0.00352249 -0.025053 -0.0944105 -0.211112 0.0832679 0.100701 -0.152645 -0.23451 0.124878 -0.127893 0.0678497 -0.0995985 -0.0351485 0.0225919 0.0799536 0.194805 -0.151454 0.110048 -0.204816 0.0235719 -0.135127 -0.120858 0.0830739 -0.0199772 -0.164284 -0.0117137 0.00323513 -0.106433 -0.184288 -0.271818 -0.0877792 -0.0428104 -0.0522985 -0.312679 0.130294 0.127163 -0.181251 -0.266203 0.188984 0.0459527 -0.0454332 0.0919435 -0.0815326 0.331482 0.162437 -0.191156 -0.0749989 -0.0744734 0.0381389 0.0190148 0.000161279 0.16543 0.0264688 0.149125 -0.0847721 -0.034489 -0.178225 -0.0898609 -0.0696636 -0.0783847 -0.0386488 -0.00639386 -0.0859693 0.0959776 0.163795 0.00606375 -0.110191 -0.266712 -0.0399384 -0.0957174 0.0740526 -0.0461488 0.0449736 0.146495 -0.0698431 -0.0571378 -0.126685 0.0154545 -0.149632 -0.016721 0.102549 -0.231948 0.146513 -0.259875 -0.0308037 0.365019 0.0772866 0.0390289 0.254756 0.0181921 -0.125367 0.234741 0.109339 -0.159258 0.0458697 -0.190465 0.0272764 0.124599 -0.00778732 -0.0902251 -0.00959436 0.0723994 0.0147619 0.0342482 -0.263891 -0.0768996 -0.00190162 0.239687 0.00185525 0.173328 0.0211918 -0.0868793 -0.160922 0.046327 -0.011803 -0.0385623 0.0766887 0.234394 0.111097 0.0160505 -0.0316779 -0.0503646 0.0705416 -0.153695 -0.110555 -0.381597 0.162709 -0.00131437 0.168785 -0.0413112 0.314313 0.0865869 0.114086 -0.095742 -0.00724836 0.0859056 0.0598777 0.00047774 0.0799086 -0.120041 0.156179 -0.0137091 -0.0544557 -0.0531658 0.216375 -0.0118963 0.00540806 -0.170405 -0.0610925 0.00805687 -0.0447496 -0.0147521 0.0323174 0.0839666 0.189522 -0.115038 0.0858201 -0.0171255 -0.0496034 0.0455556 -0.148881 0.0757059 0.0851824 -0.0242576 0.119855 -0.206843 0.048561 -0.0151194 -0.0106423 0.0691584 -0.186258 -0.119466 -0.015008 -0.158863 -0.0655049 -0.207841 0.0886827 -0.0252262 -0.0129622 0.161204 0.0900277 0.107983 0.290385 -0.0972014 -0.0976592 -0.111494 0.0803719 -0.00878875 -0.19879 -0.0875219 0.236243 -0.0636275 -0.25273 0.129293 -0.046966 0.152626 0.0490352 0.0804536 0.0594132 0.227185 0.0992758 0.299256 -0.00794665 0.0304494 0.0418969 0.171449 -0.00802179 0.0385683 -0.221509 -0.106896 0.100847 0.216003 -0.196992 0.0688124 -0.0688191 -0.0783978 0.0430342 0.147192 0.0193449 -0.191759 0.1039 0.0187133 -0.0341057 0.0592949 -0.0427524 -0.117899 0.017445 0.325734 0.26913 -0.0144923 -0.0653079 0.259998 0.178479 0.0510875 -0.0432317 0.00737082 0.0540699 -0.140596 -0.060774 -0.089032 -0.170194 -0.107215 0.0104856 0.0861892 -0.0587007 0.0787189 0.139075 -0.0615633 -0.0322075 0.135391 0.16571 -0.0707479 -0.0979404 0.131931 -0.0544406 0.179636 -0.04515 0.0890078 -0.00467885 -0.0754412 -0.0520086 0.216442 -0.00732835 -0.206218 -0.0352257 -0.129146 -0.204092 -0.058775 -0.145553 -0.0168834 0.067731 0.119823 -0.121059 -0.211192 -0.0553392 -0.0304169 -0.120387 0.0626112 -0.0800672 0.194735 0.0413355 0.134903 0.292608 0.0485918 0.24411 -0.113763 -0.06464 -0.0933809 -0.437899 -0.374151 -0.300207 0.125364 -0.0521182 0.267066 0.254001 0.0378307
skin -0.183564 0.251356 0.00713008 0.0816688 0.0454005 -0.259296 -0.16536 -0.167426 0.153027 0.202201 -0.287636 -0.149071 -0.366522 -0.0169161 0.301696 0.0485864 0.111938 -0.160556 -0.190156 0.436694 -0.000196558 -0.0717339 0.140481 0.0439716 0.087108 -0.105639 -0.00467928 -0.205247 0.0356727 0.222105 -0.0985347 -0.332714 0.0308574 -0.209875 0.0518736 0.0884184 -0.20403 0.0443705 -0.140846 -0.202 -0.0220384 0.0769285 -0.000217412 -0.225346 -0.138172 -0.345776 0.068975 0.27355 0.3618 -0.107588 0.332624 0.168156 -0.0449803 -0.4128 0.0299071 -0.294716 0.27053 0.327706 -0.294003 0.0465652 -0.0321577 0.164908 0.162238 0.151858 0.181441 -0.217928 -0.163262 -0.0643901 -0.00572573 -0.395776 -0.139686 0.0947376 0.0941994 -0.165987 0.151895 0.0255737 -0.253846 -0.15758 -0.00943339 0.047737 -0.177749 -0.237963 0.219414 -0.180165 0.815033 0.130163 -0.0904768 -0.457975 -0.0207873 -0.192734 -0.0278794 -0.383925 0.235864 0.326765 -0.33115 0.189632 0.287685 0.245803 -0.109314 0.346385 -0.270993 -0.398791 0.0574594 -0.12748 -0.0572037 0.173392 -0.321233 -0.228253 -0.0903161 0.197089 -0.175521 0.112562 0.641317 -0.153098 -0.0552868 -0.210297 -0.057427 -0.326214 0.385669 -0.0225544 0.0657381 0.468797 -0.26606 0.0994776 0.0140466 -0.426167 -0.354343 0.226816 0.0917521 -0.192357 0.067373 -0.00911974 -0.161164 0.106826 -0.433469 0.36976 0.00259375 -0.156102 -0.258363 -0.116282 -0.353102 0.275521 0.324716 0.0915927 -0.157588 0.404588 -0.0592693 -0.0757519 0.514038 -0.0142867 0.245298 -0.188665 -0.521268 0.127651 -0.183486 0.194333 0.282174 -0.272513 0.0818029 0.0327137 -0.00822576 -0.337123 0.0436665 -0.314039 -0.0328366 0.0143075 -0.395764 -0.13017 0.0262028 0.0109871 -0.101009 -0.0493935 0.21377 -0.155448 0.285518 0.181028 -0.276134 0.180883 -0.0515566 -0.15015 0.283526 0.169355 0.0982845 -0.0342619 0.276244 -0.319562 -0.0785733 0.0946892 -0.195794 0.227763 0.05558 -0.342111 -0.185304 0.158098 -0.00270635 0.441005 0.605452 0.31058 0.0914868 -0.0495738 0.22881 0.141444 0.0765503 -0.338045 0.0582927 0.290625 -0.0940345 -0.0746542 -0.131488 -0.0231809 0.0671904 -0.123977 -0.127917 0.39287 -0.000277156 -0.0845748 -0.121656 -0.135901 -0.127256 -0.110478 -0.120423 -0.590167 0.300378 0.245851 -0.312806 -0.224935 0.0160805 0.0450585 0.117478 -0.42948 -0.434259 0.0404399 0.171829 -0.180687 -0.212835 -0.0989218 -0.332146 0.0840004 -0.0730124 0.249385 0.0627478 0.222087 0.258762 0.0879438 -0.0469237 0.0461339 -0.49658 0.466981 0.359289 0.0477258 -0.0360356 0.209565 -0.0176815 -0.00424748 -0.188857 0.0950456 -0.345307 -0.00423201 0.262176 0.0645145 0.330692 0.405065 -0.00790134 0.0581022 -0.179978 0.326153 0.0936662 0.0343809 0.313825 0.0792851 -0.123343 -0.0959048 0.0267225 0.19867 -0.331827 0.151217 -0.11565 -0.0548306 0.0734299 0.205252 0.272312 0.243746 0.0135107 -0.114604 -0.548983 -0.299992 0.497535 -0.0526754 0.219017 -0.426442 0.159328 -0.196513 -0.0707233 0.334488 -0.128825 0.280392 -0.412794 -0.0415944 0.0552334 0.0444711 0.0395893 0.124327 0.316595 0.227791 -0.361833 0.182691 0.33289 0.0974954 -0.315993 -0.0488743 0.275269 0.083519 -0.129086 0.33425 -0.0524119 0.541511 -0.379237 0.187393 0.203541 -0.00963855 -0.174525 0.114776 0.135536 0.148899 -0.383454 0.34159 -0.104876 0.265978 -0.100529 -0.358611 -0.353462 0.338882 0.113789 0.00762529 -0.0115406 0.0649004 0.479288 -0.335048 0.310396 0.0522821 0.0378082 0.169629 -0.0460313 -0.199233 -0.826512 -0.11647 0.0181852 -0.0226212 0.0501074 0.433156 0.15566 -0.137246 0.0891768 -0.160728 -0.0145508 0.0562848 -0.197886 0.362216 -0.127715 0.408562 -0.288352 0.135131 0.00900028 0.0598425 0.181246 0.164505 -0.306138 0.0173611 -0.370933 -0.195542 0.186282 0.0131344 -0.499321 -0.132443 0.0071208 0.324896 -0.072692 -0.280272 0.151925 0.0508721 -0.0379524 -0.182606 0.00887771 0.196116 -0.200382 0.177819 0.095997 0.2241 -0.258621 0.194482 -0.219297 -0.0088187 -0.119863 -0.0997125 -0.128306 0.220144 -0.152285 0.294458 -0.255832 -0.0440164
children -0.015829 -6.25631e-05 -0.172932 0.00772586 0.328975 -0.13912 0.228852 0.0886324 0.0914259 0.241011 -0.0551828 -0.171807 -0.318693 0.0115429 0.175533 -0.174088 -0.0460069 -0.192592 0.145453 -0.0632506 -0.253677 0.197514 0.400803 0.274323 0.170516 -0.123894 0.00261674 0.0964053 0.0990142 -0.158912 -0.220455 0.00106202 0.15147 -0.0507648 -0.16282 0.0897603 0.116509 0.196792 0.129526 -0.123293 0.103125 -0.119638 -0.118426 -0.0839177 -0.0868969 0.0140298 -0.0504588 0.0724152 -0.0900877 0.252919 -0.0326746 -0.257892 0.163602 0.0850881 -0.0612302 0.0149163 0.066935 -0.0604686 0.230979 -0.487073 -0.369789 0.0618739 -0.00589499 0.0657205 0.245364 0.152934 -0.258325 -0.000150557 0.288851 0.0134881 -0.0895174 0.341728 0.019595 -0.0521134 0.0540954 -0.0150093 -0.198228 0.280683 -0.0612754 0.14299 -0.134421 -0.0383153 -0.107289 0.0112387 0.13242 -0.13733 -0.124751 -0.0772197 0.186574 -0.112013 -0.202852 0.23951 -0.227491 0.302698 0.211877 0.191627 0.213554 0.2827 -0.0609484 -0.0352074 -0.28143 -0.322245 0.350217 0.0253629 0.0472952 -0.189217 -0.0122662 -0.10905 -0.0589997 -0.0334609 -0.0298692 0.0278827 0.530664 0.428644 -0.104664 -0.169098 -0.00477955 0.0483208 0.102045 -0.0967853 -0.17301 0.290347 0.132983 0.257175 -0.288657 -0.217763 0.0556033 -0.0300244 -0.171643 0.0359136 -0.107045 -0.103527 0.118714 -0.0552822 -0.149025 -0.0570097 -0.0609761 -0.0851462 0.0195286 -0.049114 -0.0613795 0.00254039 0.199591 0.0374999 0.0814788 0.1555 -0.213431 0.13379 -0.0144865 -0.132774 0.210389 0.114292 0.0269067 -0.0394919 0.062329 0.0617033 0.291182 -0.167207 0.26136 0.195822 -0.0921518 -0.0856063 -0.214627 0.107277 0.178336 0.171604 -0.3961 0.0445115 -0.30469 0.101015 0.0952852 0.0657978 0.0683979 -0.0196288 0.223585 -0.104101 0.0475421 0.45649 -0.169227 -0.135742 0.0948998 -0.186593 0.233588 -0.276085 -0.0219851 0.0982383 0.309049 0.177747 -0.304687 -0.0122649 -0.192484 -0.240179 -0.196259 -0.0873308 0.0382045 -0.293373 -0.0978765 0.132719 0.0281168 -0.557782 0.193591 0.19601 0.257123 0.0435175 -0.0556035 -0.0181259 -0.252028 0.0343177 0.0455469 -0.149839 0.375505 -0.0769359 -0.178642 0.0415093 -0.0516923 -0.151853 -0.153224 -0.114603 -0.130556 -0.0869286 0.0153691 -0.0995609 0.362149 0.121457 0.210035 0.0745981 0.15279 0.194031 0.0677461 -0.139487 0.205962 0.0301021 -0.180341 -0.00275589 0.0290464 -0.181294 -0.299438 0.0157725 -0.028204 -0.049248 0.096164 -0.161592 -0.0196954 -0.0880872 0.0679207 0.0807244 0.109636 0.128955 0.109924 -0.177311 -0.0512757 -0.216218 -0.0291831 -0.144691 0.0164085 0.233492 -0.218785 -0.241302 -0.145155 0.163587 0.307801 -0.171567 -0.337194 -0.192122 0.026709 -0.102692 0.404526 0.00602513 0.133642 0.226317 -0.138028 -0.00470642 0.121977 0.0700922 -0.226712 0.226887 0.0589096 -0.0907804 -0.0649021 -0.0104862 0.183731 -0.298508 -0.17575 0.226983 -0.33621 -0.189944 0.0910205 -0.125495 0.120302 -0.397686 0.129395 -0.115954 -0.0352458 0.249151 -0.0153548 0.0442024 -0.125164 -0.0360139 -0.0570743 0.162438 0.210506 0.0356414 0.0138229 0.0284852 -0.322109 -0.260984 0.0650758 -0.0952448 0.203706 -0.0766804 -0.0553113 0.0314053 0.038297 -0.257822 0.168247 0.0712497 -0.273625 -0.0159114 0.000349776 -0.140056 0.097797 0.237565 -0.0226704 -0.142758 -0.134901 -0.0855349 0.217608 -0.127415 -0.0759967 -0.0517474 0.318715 0.459824 -0.016224 -0.20438 0.330097 0.0713253 -0.132837 0.0252092 0.0296867 -0.197094 -0.125098 -0.131076 0.334784 -0.257016 -0.640769 -0.083139 -0.038148 -0.183319 0.25548 -0.0486413 -0.301042 0.173373 -0.172075 0.0155916 -0.234744 0.482217 0.0305332 0.237238 -0.0674916 0.260256 0.0982063 0.349572 0.0387856 -0.372924 -0.255695 0.448801 -0.0629403 -0.0198409 0.145778 0.103752 0.0192404 0.0823516 -0.159832 -0.162926 -0.146884 0.0173104 -0.0827287 -0.0488719 -0.0336252 -0.105097 -0.0325833 -0.221699 -0.274432 0.0824519 -0.281913 0.328079 0.175003 -0.0776841 0.138715 -0.169504 -0.287662 0.51939 -0.195467 -0.059346 -0.0902274 -0.0331293 -0.0513469 0.0518171 0.203131 0.486112
row 0.100684 0.076294 0.473743 0.083307 -0.116626 0.323828 0.462225 0.10998 -0.334792 -0.221807 0.241492 -0.304813 0.153228 0.123133 0.178337 -0.0265037 0.0765808 -0.0092756 0.0728053 -0.00230571 -0.21737 0.150048 0.0018878 -0.402174 -0.263178 -0.168971 -0.258642 -0.618222 -0.30483 -0.0361081 0.297365 -0.172956 -0.139983 0.433999 -0.212307 -0.258356 -0.0968755 0.178243 0.0822619 -0.211428 -0.156431 0.00377053 -0.0895471 -0.0505439 0.29147 0.210271 -0.342708 0.0475989 -0.232748 -0.0833286 0.00742732 -0.0601109 0.0968623 0.167572 0.43327 0.191826 0.286182 0.185204 -0.319385 -0.0284546 -0.193869 -0.206474 0.274286 -0.382815 0.193328 -0.2747 -0.15508 0.395154 -0.213631 0.131363 -0.129835 0.0724568 0.215208 -0.0410942 0.28929 0.014876 -0.242069 0.185642 -0.0858562 0.142157 0.121809 -0.0746402 -0.15194 0.200286 -0.163453 -0.251653 -0.201509 -0.384873 0.276731 0.0922027 -0.0932072 0.0814249 -0.17168 0.058762 0.0538488 -0.147745 0.0944386 -0.487296 -0.510145 -0.0730803 0.130654 0.459345 -0.469268 0.0173346 0.13994 0.0689654 0.17361 -0.0708901 -0.013329 0.0506098 -0.352311 -0.299447 0.0216313 -0.0172877 0.0830729 0.024354 -0.23999 0.216122 -0.252761 -0.142561 0.22282 -0.0415429 0.119948 -0.0825013 -0.052007 0.362817 0.31249 0.268037 0.174377 -0.0521456 0.160352 -0.219279 -0.132697 -0.0536345 0.0259046 -0.088645 0.240476 -0.258898 -0.164297 0.151873 -0.1501 -0.136151 0.252738 0.020212 0.210059 -0.00336775 -0.0641696 0.163636 0.266284 -0.316939 0.117996 0.375451 0.0269896 -0.15785 0.00831122 0.174337 0.0460075 0.0501658 0.127331 0.277903 -0.268886 0.0312844 0.11551 0.0574789 0.195715 -0.135045 -0.148411 -0.263811 0.494561 0.360252 -0.0561107 0.333593 0.0202863 -0.0460388 0.170612 -0.40542 -0.261015 0.276128 0.116857 -0.0715247 -0.420734 -0.227115 0.149303 0.156137 -0.296839 -0.297522 0.0375001 -0.0117966 -0.194387 -0.12457 0.0382991 -0.386484 -0.331715 0.0488975 -0.159467 0.0737236 -0.205816 -0.372996 0.377939 -0.0825503 0.462507 0.0284764 0.0890663 -0.178206 -0.231484 -0.135204 -0.0228136 -0.278354 -0.238256 -0.224799 -0.411987 0.253533 0.0680615 -0.0921197 0.143199 -0.242598 -0.0152243 -0.0985921 -0.531118 -0.206201 -0.0560916 -0.0828658 -0.0810503 -0.199137 0.153119 -0.593158 0.0081501 0.214351 -0.171222 -0.0816749 0.0551688 0.303362 -0.0598098 -0.195977 0.332838 0.00571905 -0.26365 0.199547 -0.139519 -0.0799883 -0.0224144 -0.121013 -0.0013624 0.16072 0.0726386 0.138221 0.403942 0.208828 -0.103065 -0.109156 -0.280243 0.0724157 -0.142235 0.0120114 0.21569 0.0325332 -0.323617 0.115142 0.252955 -0.247186 0.137317 0.111448 0.291856 0.283241 -0.134328 -0.123181 0.225789 -0.0673614 0.096502 -0.177683 0.0345605 0.483054 0.102664 0.169443 -0.16808 0.0220053 -0.0986382 0.04944 -0.103715 -0.000270223 -0.208053 0.0450937 0.0470534 0.248168 -0.255949 0.43682 -0.321144 0.24103 -0.329441 -0.0260484 -0.0805055 -0.112683 0.175768 0.1985 -0.0323337 -0.0168282 0.0355722 0.404468 -0.085059 -0.124635 0.0374608 -0.157456 -0.0473792 -0.107489 0.114737 -0.0839451 0.278499 -0.388927 0.477283 -0.150131 0.0494332 -0.155284 -0.186239 0.092207 -0.343373 -0.0652399 -0.0917788 0.374841 0.109477 -0.269718 -0.187976 -0.367525 -0.0841948 0.0426986 -0.317733 0.162702 0.0841089 0.0768366 0.0948524 0.10988 0.250457 -0.250742 -0.429 -0.35559 0.233189 -0.148963 0.0721449 -0.26507 0.19798 -0.0218703 -0.0977195 0.23113 0.254515 0.0463249 -0.314651 -0.108011 -0.0233961 0.133044 0.0809714 0.137303 -0.127211 -0.0310613 0.240123 0.302748 -0.0156946 0.344026 0.133994 -0.200134 0.123322 0.193419 0.227565 -0.100177 0.0686499 0.045095 -0.0119863 0.248825 -0.279823 0.124317 0.0363913 -0.0249509 -0.381877 0.353093 -0.237996 -0.038357 0.101227 0.103204 -0.228266 0.131609 0.150157 0.0136498 -0.162419 -0.0815836 -0.440561 0.235387 0.0100583 0.502281 0.222513 -0.139284 0.298613 0.00334169 0.094724 -0.0119774 -0.196035 0.267433 0.17762 0.201678 -0.378474 0.372134 0.119268 0.176237
wizard 0.220451 0.60103 -0.258395 -0.0192707 -0.287465 -0.00468425 -0.042476 0.162314 0.171964 0.193098 -0.304117 -0.285199 -0.210099 0.0016145 -0.252688 0.104834 0.344017 0.0219494 -0.229561 -0.167748 -0.0219305 -0.344941 0.342835 0.310404 0.543314 -0.220872 -0.138146 -0.0716521 -0.789504 -0.0935692 -0.056039 0.0169376 -0.00744262 -0.506348 -0.345024 0.379274 -0.198005 0.28448 -0.152977 0.156019 -0.37059 0.319165 0.33156 -0.101283 0.297093 -0.151821 -0.414101 0.377225 0.137098 0.031769 0.172904 -0.407636 0.00856578 0.159186 0.245777 0.155915 0.0153641 -0.426475 0.116467 -0.498133 0.0711763 -0.258778 0.210907 0.122055 0.0306154 -0.538691 -0.239832 0.0353549 0.361096 -0.0419381 -0.344234 -0.0450911 0.0375287 -0.339646 0.249105 0.0935966 -0.295538 -0.0855351 0.179229 0.407539 -0.167229 0.0823693 -0.261342 -0.0625258 0.0907522 -0.172317 0.43174 0.0581848 0.0906568 -0.33137 0.0285407 -0.230067 -0.120593 0.311038 -0.477866 0.0080861 -0.474324 -0.171692 -0.399762 0.337557 0.00977851 0.212188 0.235047 0.163585 0.173885 -0.155456 0.0980089 0.16115 -0.0302195 -0.0895399 -0.131122 -0.0533137 0.204453 -0.104779 0.106402 0.0603869 -0.279204 -0.116027 0.0693756 0.237642 -0.243003 0.214699 0.063456 -0.119004 -0.100069 -0.13444 0.252298 0.0623059 0.262798 0.0664894 0.033326 -0.104083 0.387378 -0.259724 0.0910878 0.0534522 0.0988567 0.00053985 0.13791 -0.355089 -0.202142 -0.21856 0.0949826 0.0771261 -0.040023 0.0160795 0.468944 0.287414 0.109171 -0.11778 -0.106214 0.12436 -0.381433 0.0502896 -0.0358918 -0.0140312 -0.157581 0.0286027 0.216016 0.500061 0.00145677 -0.174957 0.105178 0.114256 -0.27777 0.236059 0.0181883 0.119808 0.0968648 0.432955 -0.254128 0.0445498 -0.231583 0.320567 0.427716 -0.228877 0.372798 0.269255 0.196551 -0.0448681 -0.289743 -0.221801 0.143702 -0.417026 0.107346 -0.0190822 0.167173 -0.496652 0.138781 0.00458503 -0.235319 0.20452 0.0560992 -0.235951 0.245706 -0.0599037 -0.169992 -0.174431 -0.275559 0.101741 -0.0458812 -0.0153777 0.167647 -0.194858 0.174216 -0.0833276 -0.304399 0.254949 -0.39513 0.352563 0.213696 -0.404805 0.160367 -0.214138 0.0560748 0.212182 -0.364428 0.0562132 -0.357293 0.0323354 -0.00363525 -0.272681 -0.110791 0.172772 0.154351 -0.162238 0.389531 -0.14737 0.00336321 0.0534238 0.137171 0.300626 0.178671 0.124807 0.0659827 -0.0636791 -0.157222 -0.349563 -0.406347 0.0213927 -0.0104021 -0.217014 0.125395 0.167629 -0.207213 -0.174438 0.0715707 -0.285199 -0.155661 0.0357974 0.234873 0.0676847 0.0299446 -0.457425 0.162226 -0.197313 0.069983 -0.0897316 0.293308 -0.0697121 0.293472 -0.548108 -0.127081 -0.206904 0.0417831 0.591928 0.353083 0.054336 0.0970647 -0.180249 -0.286887 -0.504055 0.32161 -0.0211744 -0.252158 -0.0427324 -0.300726 -0.564684 -0.208545 -0.120583 -0.0413754 -0.282534 -0.0625538 0.382068 -0.024167 -0.0582869 -0.258055 0.249779 0.18781 -0.271831 0.0209971 0.113726 0.182383 0.26194 -0.12215 0.0050787 -0.358638 -0.172492 -0.270871 0.0643556 0.250832 0.0858658 0.0590058 -0.204813 -0.376741 0.115022 0.287067 0.252934 0.650381 0.33094 -0.430883 -0.362398 -0.15855 0.0903871 -0.0560692 0.17205 0.00998282 0.287178 -0.153284 -0.0861703 0.073991 0.185347 0.142283 -0.172931 -0.238628 -0.139393 0.0729364 0.0500185 0.0148146 -0.238121 -0.195345 0.101147 0.0251938 0.22245 -0.0856219 0.229373 -0.0243465 -0.362241 0.0429112 0.289969 0.285388 -0.275054 0.231239 0.143911 -0.00133746 -0.155054 -0.0602171 -0.168949 0.109157 0.187784 0.0513188 0.0833261 -0.055468 0.0242596 -0.209196 -0.223956 0.483815 0.0476228 -0.189555 -0.220859 -0.0804685 0.301488 -0.0874527 -0.0621752 -0.430408 0.00599954 -0.166313 0.135074 0.300708 -0.0721231 -0.321632 0.0519991 -0.361979 0.155801 0.000268087 0.313895 -0.0511294 0.395384 0.041742 0.288801 -0.147727 0.163275 0.00353856 0.295018 -0.016023 0.180723 0.156805 0.00919703 0.0445952 -0.0526311 0.341271 -0.0240614 -0.475765 0.308569 0.241621 0.216729 0.128682 0.220812 -0.12958 0.159573
disability -0.0355162 0.138306 0.177268 0.113573 0.0553005 0.353744 0.0067328 0.315744 -0.0953886 0.0937381 -0.0874641 0.138856 -0.663559 -0.0268198 -0.0991626 -0.14282 0.123742 0.0167709 -0.033697 -0.0990963 -0.0515237 -0.0473648 0.139074 -0.379307 0.341522 -0.222729 0.033602 -0.160407 0.235885 -0.21992 -0.141015 -0.261378 0.0446274 0.343072 -0.33023 0.427314 -0.326323 -0.125099 0.0692532 -0.220056 0.454264 0.19402 -0.236956 -0.392789 0.122291 -0.574204 0.344525 0.150423 -0.364211 0.0677627 0.23768 0.0554303 -0.0760234 -0.0670022 0.235712 -0.0770305 0.232927 -0.23032 -0.509628 -0.587666 -0.113031 -0.0366894 -0.267867 0.0415845 0.0329466 0.0397591 -0.097283 -0.187017 -0.122059 0.439652 0.0465155 -0.126964 0.0846266 0.0391635 0.19105 -0.216053 -0.0266453 -0.0168795 0.134688 0.450983 -0.156365 -0.0576282 -0.105406 -0.250456 0.0438002 0.265317 -0.405201 -0.300211 0.112204 -0.115063 -0.388599 0.189323 0.2426 -0.0752604 0.0135129 0.300529 0.660216 0.519287 -0.21543 0.327992 -0.0903492 -0.180087 0.10092 -0.320928 0.565268 0.142261 -0.184793 0.0958896 0.232278 -0.285095 -0.431214 -0.209313 0.235948 -0.0234502 0.329267 -0.152138 -0.3031 -0.39729 0.197459 -0.206096 0.188121 0.116325 0.178101 0.194005 -0.789683 -0.249756 -0.148688 0.189581 0.0163315 0.0959427 0.176107 0.425557 -0.245557 -0.179779 -0.328143 0.00894115 -0.0307288 -0.100811 0.167428 0.485668 -0.469589 -0.195539 0.0638186 -0.120534 -0.164437 -0.0549335 0.127646 0.136033 0.546253 -0.112479 -0.12828 -0.169041 -0.0432261 0.210345 -0.0734136 0.251296 -0.14369 -0.010534 -0.0124728 0.0820653 -0.273995 0.0750313 0.0682719 0.161732 -0.457764 -0.271729 -0.567267 -0.102231 -0.440064 0.086638 0.298549 -0.536609 0.173519 -0.257808 0.12758 -0.153615 0.00784792 -0.104021 -0.226552 -0.372686 0.0249626 -0.0100062 -0.0589435 -0.344852 -0.00339984 -0.757814 0.289792 0.324427 -0.432501 0.0952892 0.229662 -0.203115 -0.211207 -0.0770679 -0.126784 0.0563748 0.228978 -0.064517 0.177244 -0.252592 0.131659 0.278675 0.240782 0.0567652 -0.230897 0.0235293 0.257715 -0.350157 -0.170848 0.358042 0.079625 -0.390032 0.308811 -0.289943 0.409913 0.407709 -0.288306 -0.270901 0.0345667 -0.264713 -0.0769904 -0.0838509 0.101248 0.408217 -0.186127 -0.297958 0.0225129 0.020421 -0.495039 -0.36048 0.379328 -0.175173 0.0585985 0.405261 0.417979 -0.0811706 -0.380371 0.312295 0.0652819 -0.102221 0.355376 -0.313628 -0.0601652 0.0171953 -0.436202 -0.357303 -0.382275 -0.240844 0.169153 0.162408 0.306388 -0.0853219 0.0128761 -0.191386 0.0364293 0.183629 0.153519 0.0167696 -0.266628 0.360897 0.0496128 -0.13225 -0.141634 0.328493 0.318819 0.228525 0.0425241 -0.144803 0.0480121 -0.0975191 -0.333872 -0.178109 0.270193 0.0755781 -0.342093 0.303346 -0.0891443 0.078001 -0.167007 -0.302281 -0.0915756 0.162787 -0.122105 0.576415 -0.505038 -0.16929 0.448929 -0.0677395 -0.0638584 -0.053667 0.282295 0.532907 0.0809541 -0.0282516 0.38521 0.425191 -0.315101 -0.251459 -0.102651 0.057759 0.28645 0.0478398 -0.520467 0.554557 0.0541061 -0.142203 0.249115 -0.342699 0.474322 -0.0169225 0.0801911 -0.0873205 -0.138765 -0.340524 -0.119302 0.0489494 0.235825 0.134911 0.164175 -0.00805354 0.19317 0.0388244 -0.090574 -0.168395 0.0434561 0.306297 0.403216 -0.136749 -0.174276 0.164266 0.0981936 0.410648 -0.40342 -0.000290343 0.177089 0.572706 0.0595636 0.122675 -0.0650083 0.197134 -0.300683 -0.0428097 -0.128039 0.270684 -0.23415 0.0447824 -0.193503 0.0993185 0.0269551 -0.111399 -0.642401 0.0638522 -0.421077 -0.0330658 -0.163553 0.136632 0.0161051 0.210895 0.0356112 0.257762 0.17085 0.401779 0.102512 0.0963271 -0.360646 0.530813 -0.222334 -0.194837 -0.231441 -0.10848 0.38824 -0.00508199 -0.107428 0.246384 -0.329468 0.00582696 0.0689979 0.0197043 0.18798 -0.18271 0.282113 -0.0285005 -0.48304 0.302543 -0.202475 0.0748236 0.180136 0.184279 0.393255 -0.18847 -0.154022 0.24467 -0.135938 -0.303496 0.0819497 0.0374957 0.120466 0.0154767 0.315036 0.0254424
environment 0.140882 -0.1754 -0.108845 0.0460747 -0.018532 0.0743219 0.11905 -0.366084 -0.150093 0.119402 -0.129272 -0.09093 0.0758345 -0.284217 0.0154919 -0.12815 -0.147151 -0.35754 -0.0159898 0.0625376 0.241992 0.105358 0.150053 0.340459 0.317088 0.171865 -0.088279 -0.05672 0.197738 -0.0381049 0.112549 0.127766 -0.218879 0.266391 0.243873 0.051576 -0.326663 0.0996105 -0.179951 -0.25752 -0.0911302 0.0109283 -0.247627 -0.269215 0.146693 0.0733013 0.387526 0.19555 0.0553186 -0.164508 -0.161556 0.115658 -0.0320044 0.0705052 -0.0342095 -0.0990891 -0.240812 0.0727911 -0.16549 -0.0228672 0.150799 0.28377 -0.00813992 0.206349 0.131638 0.0666489 -0.247251 0.146718 0.36599 0.392987 -0.157389 -0.0905699 0.0490285 0.137365 -0.238585 0.00365076 -0.224215 0.282749 0.200367 -0.495559 0.109142 -0.0141688 0.321969 -0.220293 -0.112396 0.369026 0.240403 -0.264309 -0.00873644 -0.15067 -0.123055 0.336883 0.0150063 0.102388 -0.0590244 0.113204 0.258226 0.0687299 0.0543298 0.196668 -0.0665074 0.274164 0.0500406 0.0958092 -0.17746 -0.14484 -0.0376304 0.0471507 0.405893 0.179743 -0.502609 -0.0111252 0.229862 -0.0462418 -0.279107 -0.102167 -0.474983 -0.217352 0.0917723 0.0746003 0.206423 0.0409854 -0.120403 0.186437 -0.0544821 0.0202267 0.140919 -0.193656 0.0377356 0.370315 0.0765192 0.06581 -0.071423 0.0561902 -0.245616 -0.098552 -0.046991 -0.257813 -0.13932 -0.100289 -0.387025 0.0641542 0.220466 0.159846 0.48609 0.118753 -0.178723 0.383246 0.0955575 0.205589 0.0115486 -0.0797498 0.444955 -0.259301 -0.0810352 0.302404 -0.0391158 -0.100027 0.0428875 -0.110139 -0.451118 0.0947464 -0.0423322 -0.0612779 0.00216183 0.0175321 0.257191 -0.230339 -0.0166418 0.194722 -0.191349 -0.240194 -0.197566 -0.155568 0.0312209 0.0926784 0.0559862 -0.284554 0.000463197 0.0369217 -0.120424 0.291054 0.142387 0.0470892 0.108905 -0.24626 -0.0270929 0.00960755 -0.0158393 0.335644 0.0558147 -0.0997867 -0.202231 0.254877 -0.214871 0.258718 0.196704 0.108743 0.0806612 -0.377779 0.276119 0.20023 -0.0338861 -0.217578 -0.0809571 -0.113696 0.38728 0.0797128 -0.132618 0.157769 0.185052 -0.026319 0.251557 -0.0423953 0.118954 -0.278744 0.112392 0.0495039 0.0758905 0.182354 -0.43403 0.0880779 -0.00900195 -0.255511 0.0208442 -0.282759 -0.0647996 0.19817 0.114229 -0.245396 -0.247151 -0.149957 0.293364 0.338113 0.0649216 -0.115308 0.209407 0.216228 -0.241215 -0.115723 -0.139891 -0.013761 -0.0583008 0.186593 0.105063 0.0318796 -0.0136191 0.0823946 0.54989 -0.0822372 0.212167 -0.0641895 -0.287491 0.390515 0.215154 0.1145 -0.185662 0.0106534 -0.211233 -0.147541 0.0427591 -0.444027 -0.258681 0.390499 -0.292517 -0.117424 -0.237516 -0.387579 0.112781 -0.132436 0.054005 -0.127736 0.0942983 0.140507 -0.508635 0.0094489 0.161403 0.126484 0.0661922 0.00820212 0.0366642 -0.24994 0.176036 0.265043 -0.108592 -0.396787 0.209118 0.0558867 0.0377374 -0.156534 0.177798 -0.171415 -0.389438 -0.0610137 -0.0256628 -0.244111 -0.0864884 0.121851 -0.154468 0.257378 -0.400725 -0.0201272 0.31043 0.00794769 -0.252871 0.261661 -0.0567418 0.0485089 0.394909 -0.121665 -0.298124 0.0242542 -0.0288004 -0.011833 -0.201034 -0.0610178 -0.211598 -0.0267742 -0.0580841 -0.179118 0.227677 -0.300431 0.00482113 -0.00896763 0.384877 0.141067 -0.0700293 0.59904 0.394766 -0.044142 0.0922597 0.161113 0.233733 -0.248162 0.101267 0.417277 0.185241 0.0914873 -0.163577 -0.335694 0.0543845 -0.0834575 0.0189044 -0.0901044 -0.401797 -0.304573 -0.0181664 0.0760802 -0.0675015 -0.412813 0.0618928 -0.309663 0.21563 0.183903 0.16315 -0.217682 0.185568 0.305091 -0.00575687 0.426477 -0.258253 0.120697 -0.518922 0.0372908 -0.41601 0.359963 -0.102637 -0.00317758 -0.0280801 -0.0969842 0.0554649 0.148308 -0.106762 -0.154726 0.0902103 -0.351032 0.0304348 -0.0638772 0.567614 -0.0485881 -0.130088 -0.06614 0.00721921 0.196084 0.00620703 0.219086 0.282235 0.0604365 0.215441 0.127477 -0.172407 0.197444 -0.542183 -0.224786 0.147286 0.243426 0.073671 0.221467 0.285906 0.0919028
terror 0.0234386 0.00334393 -0.189649 0.000253351 0.0373502 0.229843 -0.268 -0.384355 -0.151478 0.0980836 -0.306663 -0.172555 -0.122978 -0.134 0.265608 0.146649 0.0238522 0.437756 -0.255943 0.102624 0.047411 0.391578 0.388003 -0.0963321 -0.161608 0.0474105 0.0483123 0.0504855 -0.009928 -0.439706 0.00675391 -0.0215817 0.197139 -0.0754136 0.221719 -0.0820933 -0.281916 0.353144 0.460048 0.14241 -0.0129054 0.330555 -0.564095 -0.053581 0.130467 0.0333517 -0.307486 0.459998 0.27723 0.145347 0.0574013 -0.177875 0.300036 -0.081731 -0.0267803 0.0502415 0.0316627 -0.146409 -0.150482 -0.0877201 0.102275 -0.203957 -0.412527 0.0613149 0.0937857 -0.143008 0.27938 0.146862 0.0775718 0.348257 0.207589 0.544446 0.00693154 0.250216 -0.1944 -0.338634 -0.127735 -0.401571 -0.0511192 -0.0548198 0.105063 -0.0645951 0.0350084 0.229905 0.181731 0.242444 -0.269591 -0.15545 0.519344 -0.737208 0.315851 0.0137139 0.0190398 -0.31616 0.364895 0.1015 0.260084 -0.152729 -0.0571619 -0.185249 -0.425238 -0.151481 -0.250366 0.17157 0.153838 0.162803 -0.0398761 -0.00656295 -0.283619 -0.345768 0.0166583 0.0136785 0.0943118 0.0648673 -0.252751 -0.146033 0.103337 -0.031663 -0.213563 -0.178371 -0.0248019 0.131482 0.15194 -0.00962844 -0.0709501 -0.14884 -0.198075 0.0647679 -0.00547432 0.113566 0.307118 0.316952 -0.163434 0.19924 0.214302 0.0301366 0.0231232 -0.256245 0.0229187 -0.311115 -0.00588707 -0.315667 0.385378 0.403873 -0.0119029 0.446017 0.0666303 0.237756 -0.223444 -0.397937 0.276129 -0.38195 0.23341 0.0821092 -0.149667 0.317175 0.0181806 -0.246166 0.307195 0.0662604 -0.490278 0.11986 -0.0114617 -0.536053 0.303077 -0.0605938 0.0639483 -0.0177016 -0.12446 0.287912 0.28775 -0.378674 0.319132 0.111851 -0.226385 0.350254 0.0503284 0.721864 -0.024484 -0.718225 -0.190634 0.107336 0.181529 0.207902 -0.387514 -0.0420415 -0.077752 0.115771 0.0229524 0.0847328 0.605972 0.0943263 0.409735 0.210631 -0.0206702 -0.0574779 0.267327 -0.0298209 -0.210591 0.0967391 0.699796 -0.12389 0.307741 -0.333266 0.0231231 -0.00948167 -0.146949 0.0938236 -0.343748 0.262262 -0.00366958 -0.157552 0.218154 0.00832503 -0.0808799 0.038218 -0.483898 0.0718599 -0.373923 -0.34396 0.151037 0.0105993 0.27531 0.322324 0.289607 -0.0794699 0.0723848 -0.0941161 -0.0961496 -0.127958 -0.21859 0.154222 0.0246475 0.225013 -0.0948671 0.313156 0.12923 0.0187428 -0.161484 -0.241698 -0.483031 -0.202546 -0.0858427 0.44047 -0.313711 0.366751 0.0030419 0.289408 -0.0595066 0.0968035 -0.128595 0.0402855 0.361848 -0.166192 -0.170538 -0.124417 0.0399322 0.022391 -0.224562 -0.0220309 0.000976609 -0.131549 -0.374209 0.00256714 -0.0305026 -0.124133 -0.22195 -0.00130982 0.196927 0.0815671 -0.143894 0.284645 -0.254375 0.229294 -0.739331 0.0793063 -0.0347415 0.0143773 -0.121091 -0.226627 -0.604853 -0.0689283 0.131303 0.000348003 -0.124964 -0.0651766 -0.323637 -0.0568044 -0.04248 0.0260186 0.101437 0.279532 0.0789671 0.322497 0.167172 0.289779 -0.145391 -0.111091 -0.32994 -0.0638679 -0.0285873 0.369977 -0.267277 0.209313 -0.00109256 0.21127 0.264248 -0.310189 0.14929 -0.0241117 -0.204724 -0.151151 -0.374865 -0.0586894 0.0228339 0.260419 -0.0886242 -0.239106 0.162011 -0.284577 -0.221059 0.0285629 -0.010539 -0.0435104 0.430041 0.217802 -0.225714 0.185312 0.0966798 -0.116047 0.437599 0.47872 0.151425 -0.292881 -0.193762 0.110477 -0.0692286 -0.274932 -0.196325 0.110722 -0.314319 -0.0883842 0.0575971 0.28823 -0.0428739 -0.198044 -0.0200015 -0.27172 -0.111993 0.127073 0.0894727 -0.0458759 -0.138602 -0.10999 -0.383522 0.233454 0.265701 0.309831 -0.0154391 0.139566 -0.254142 -0.0433559 0.00991987 0.299147 0.064127 -0.182993 -0.0948072 -0.0626697 0.0840884 0.183718 -0.331567 0.209665 0.0663298 -0.126889 -0.306612 0.0822433 0.193366 0.0704658 0.0499844 -0.151751 0.16328 0.205482 -0.0239333 0.152505 -0.0596465 0.0720276 0.0765979 -0.122653 -0.119937 -0.146683 0.181225 0.00149425 -0.272287 0.286942 -0.437 0.0314464 0.186961 0.224143 0.213485 0.398821
smile -0.196477 0.111629 -0.0377901 0.10206 0.104822 -0.165771 -0.284585 -0.0305883 0.15187 -0.0072441 -0.219665 -0.502166 -0.0924812 0.368241 -0.108365 0.0776661 -0.198535 0.0454269 -0.446693 0.135353 0.0899624 -0.0179308 0.249039 -0.181829 0.126299 0.321884 0.149446 -0.165651 -0.0623597 -0.356212 -0.659755 0.00512876 -0.0615812 -0.629603 -0.408497 0.13188 -0.452699 0.19793 -0.0899173 -0.441759 -0.0729407 0.282716 0.032347 -0.20354 0.219039 -0.034401 0.194111 0.163137 0.369013 0.0129689 -0.00572729 0.0583827 0.169995 0.00331084 -0.10038 0.318367 0.00557471 -0.115038 -0.239593 -0.336507 -0.0832724 -0.0285316 0.290156 -0.146469 -0.0900087 0.011217 -0.129577 -0.000220064 0.626726 0.00925691 0.28441 -0.169036 -0.174337 0.344152 -0.155885 -0.053295 -0.173022 -0.0950685 0.0595986 0.143641 -0.437318 -0.100059 -0.014235 -0.166155 0.171941 -0.394518 0.0182561 -0.0137053 0.0104622 -0.344922 -0.254046 0.155458 0.311214 0.298153 -0.358422 -0.104423 -0.130508 0.192441 -0.12395 0.0707807 -0.0812023 -0.201687 -0.354735 -0.0578201 -0.0106473 -0.373116 -0.138419 -0.0964308 -0.612628 -0.0859997 -0.118299 -0.363029 0.259693 0.125795 -0.0154097 -0.138715 0.122597 0.018546 -0.173192 -0.240075 -0.100949 0.37579 -0.106677 -0.0480206 0.0259338 -0.110804 0.0461952 -0.0930485 -0.162297 0.177535 0.199328 0.384985 -0.330758 -0.11903 0.0464656 0.147122 0.0697554 -0.126153 -0.153665 -0.122174 -0.108835 -0.260792 0.103194 -0.32552 0.219887 -0.0639045 -0.125134 -0.338374 0.210821 -0.0599738 0.143696 -0.0629221 -0.00767995 0.0684317 0.0441749 -0.107469 -0.0490714 0.241832 0.329865 0.192445 -0.0412797 -0.0707669 -0.223942 -0.379828 0.0564552 0.0884343 -0.141056 0.342515 -0.342864 -0.039864 -0.536208 -0.109008 -0.0296731 -0.105835 0.0834063 0.0973607 0.12925 0.17821 0.316145 -0.0639587 0.119937 0.028653 -0.181464 -0.171733 -0.0544573 0.146034 -0.177454 -0.120761 0.109947 -0.39221 0.0567857 -0.028508 -0.38899 0.278232 -0.0770777 -0.0989118 0.373348 -0.183219 0.238968 -0.0901863 0.242953 0.248013 -0.23069 -0.272934 -0.109906 0.583867 -0.0446792 -0.434751 -0.0455854 -0.147993 0.564117 -0.0216167 0.164491 0.110165 0.411535 0.065066 -0.297243 0.026708 -0.104116 0.0849008 0.124657 -0.417563 0.114955 0.0767884 0.0605835 -0.174885 -0.0185819 0.0374005 -0.0576889 -0.447951 -0.0381309 0.498273 0.151836 0.214223 -0.0271514 0.147454 0.0261465 0.0639473 0.0131435 0.547155 0.334237 -0.28306 -0.00349339 0.367563 -0.294132 -0.0122724 0.0331584 0.286897 0.0243094 0.034352 -0.446126 -0.0478471 0.292311 -0.0885677 0.269468 -0.160754 -0.365807 0.497388 -0.0739982 0.136985 0.862031 0.559173 -0.0665268 0.516572 0.0944729 0.292479 0.141675 0.033234 0.179889 -0.176843 -0.0633286 -0.225198 0.302077 0.292388 -0.14141 0.0376337 -0.203347 0.332462 0.128784 0.23457 -0.0629156 -0.156516 0.256965 0.318961 0.0165471 -0.103251 0.159086 -0.123198 0.0222524 -0.186736 -0.114858 0.0109452 -0.0912172 0.0806086 -0.540607 -0.00950373 -0.232911 0.33756 -0.0982384 -0.247533 0.106038 0.250888 0.300839 -0.123456 -0.259878 0.0127237 0.473437 0.254084 0.00956132 0.0274804 0.0939598 -0.175869 -0.042949 0.558882 -0.0449776 0.278037 -0.347312 0.441744 0.48587 0.0719027 0.0259311 0.284877 0.143856 0.37025 -0.129371 0.525105 -0.202963 0.093884 -0.326862 -0.0173596 -0.159526 0.164511 -0.206763 0.0661056 -0.385666 -0.0609722 0.163312 -0.0960413 -0.218211 0.388889 -0.37558 0.223593 0.101707 -0.0489157 -0.0744798 -0.34926 -0.02357 -0.138898 -0.115419 -0.279695 0.308853 -0.174595 -0.0901295 -0.339041 -0.541056 0.186443 0.0627256 0.0997189 -0.253727 0.040116 -0.0115754 0.38737 -0.199331 0.151084 0.152359 -0.340345 0.00947 -0.16099 -0.290692 0.0898848 -0.265494 -0.108868 -0.371834 0.393866 0.0700643 0.0439158 0.0354922 0.0178939 0.505828 0.0136796 -0.138224 -0.0535284 -0.209937 -0.146096 0.285327 0.335378 0.0705104 0.143942 -0.184018 0.350898 -0.105506 0.296704 -0.0554582 -0.142225 0.18118 0.309787 -0.13985 0.303869 0.00919983 0.0314341
woman -0.0833195 0.294596 0.322445 -0.031192 0.11822 -0.0801595 0.430875 -0.0336405 0.213004 0.173318 -0.0174221 -0.379826 -0.300286 -0.0444611 0.33141 0.157665 -0.334084 0.131003 0.0124738 -0.122971 0.256079 0.0987291 0.250169 -0.158503 0.415011 0.0161901 -0.211949 0.0581057 0.0711884 0.352179 -0.235465 0.135126 0.0295316 0.0516227 -0.329529 0.387407 -0.0397831 -0.0622911 -0.10492 -0.448583 0.156257 0.27271 -0.271344 -0.16316 -0.0880376 -0.304096 0.268342 0.343246 0.111508 0.0349395 -0.292687 -0.163691 -0.0325834 0.0138803 -0.203875 -0.161595 0.0220295 -0.125659 0.387671 -0.400162 0.024669 -0.0334814 0.126905 -0.0857721 -0.111845 0.0448624 -0.0992087 0.0258811 0.25904 0.369777 0.183386 0.105312 -0.185794 -0.0813249 0.293671 -0.353673 -0.162532 0.0232422 0.265847 0.192807 0.10459 -7.17573e-05 -0.235861 -0.066717 0.360687 -0.0727634 -0.0380968 0.0540387 0.266897 0.0510244 0.134441 -0.123342 0.0668057 0.13795 0.109247 -0.0288596 0.0776868 0.150023 0.225746 0.0275244 -0.253615 0.194904 0.0056771 0.0602821 0.15578 -0.215816 0.0855989 -0.032894 -0.13862 0.08961 -0.170043 -0.110458 0.233043 0.114681 0.0285517 0.185557 -0.0271336 -0.287025 -0.131178 0.109216 -0.117228 0.121722 -0.124381 -0.0456627 -0.128142 0.24539 0.183039 0.18052 0.379215 0.0572189 0.258107 -0.374375 -0.111605 0.00841645 -0.151 0.160805 0.0130935 -0.115006 -0.165564 0.0678491 0.0216745 -0.0444771 0.0872817 -0.428024 0.0457949 0.00450714 -0.0237741 -0.098385 0.112526 -0.190026 0.106085 -0.052465 0.238021 0.206576 0.0375935 0.0931116 -0.0624186 0.087553 0.292701 0.261671 -0.209653 0.246372 -0.00431269 -0.0352575 -0.00182153 0.0649787 -0.41101 0.246305 -0.27344 0.189032 0.0578025 0.0956501 -0.0225403 -0.162089 0.124539 -0.0468968 0.00253703 -0.0765958 0.0757873 -0.346129 -0.0849714 -0.005343 0.213602 0.0726428 -0.17714 -0.416306 -0.236148 -0.0224773 -0.382148 -0.32965 0.0967603 -0.0108205 -0.0937696 -0.0447663 -0.198964 -0.0239152 0.101185 0.118524 0.221311 0.102861 0.371414 -0.0204312 0.0931223 -0.283869 0.107144 -0.0958886 0.0203262 -0.204154 -0.122626 -0.18737 -0.0155741 -0.130723 -0.248294 -0.0652061 -0.254932 -0.176009 -0.393045 -0.211869 -0.206628 -0.62576 0.143598 -0.0743362 0.335481 0.0387145 0.0016302 0.0025012 -0.0286117 -0.082845 0.0476645 -0.267716 0.177723 0.501178 0.27969 0.0387018 0.096684 -0.351447 0.00998773 -0.115413 -0.093205 -0.0075638 0.234913 -0.099151 0.0634178 -0.129254 -0.026021 -0.122721 -0.120941 0.379745 0.260772 -0.358703 -0.234378 -0.43122 0.353176 -0.0366615 -0.275451 0.081477 -0.205562 -0.259324 0.173255 0.0620362 -0.143944 -0.154138 -0.0148304 -0.205383 -0.0432474 0.433015 -0.0281767 -0.203906 0.146859 -0.0512842 0.292242 -0.13862 0.00373603 0.33306 0.396506 0.206087 -0.204602 0.14262 0.00599828 0.270378 -0.17896 -0.123352 -0.0195911 0.216087 -0.228479 0.19032 -0.0410121 0.016345 0.030201 -0.0135377 -0.151768 0.085012 0.102735 0.275298 -0.0609655 -0.134747 0.0446889 -0.161853 0.320768 0.0348264 -0.105628 -0.0709725 -0.0295385 -0.433143 -0.382816 -0.160595 0.124706 0.102109 0.195861 0.0292662 0.0345128 -0.12303 0.0556515 -0.14961 0.223868 0.0885876 -0.397813 0.121378 -0.0339719 -0.248022 -0.0826772 -0.21193 -0.118888 0.0266701 -0.140853 0.277181 -0.0949939 -0.0451531 -0.0111917 -0.181848 0.00816801 0.22895 -0.185098 0.0589455 -0.13532 -0.117254 0.00335172 0.0214353 -0.089146 -0.241594 -0.147346 0.0935592 0.0253888 0.27929 -0.110817 0.0202928 -0.170552 0.0401916 0.0437463 -0.129011 0.218829 0.0505624 -0.166901 0.0872616 -0.141807 0.519884 0.118961 -0.389822 -0.0686526 0.165334 -0.029465 0.115099 -0.0962765 -0.0962707 -0.188238 0.316951 0.189679 0.00531238 -0.118986 0.301528 -0.210512 0.254546 0.0280976 0.18277 -0.0984567 0.147836 -0.0612999 -0.0502509 0.267577 0.0171915 0.0389854 0.0841538 -0.0883747 -0.00171078 0.10813 0.0588293 0.286506 0.104495 0.122929 -0.0771862 -0.37531 0.245569 0.0900739 0.115056 0.0632082 -0.0318481 -0.119126 0.334028 0.112847 0.370862
string 0.0540146 0.379361 -0.00404708 -0.260803 0.0324774 0.446378 -0.086166 -0.351829 -0.364913 0.0273637 0.240351 0.00529244 -0.121559 0.221065 -0.0784306 -0.107725 0.111918 -0.0732694 0.0393547 -0.0846645 -0.316936 -0.0537298 -0.208744 -0.126137 -0.227912 0.124988 -0.268431 -0.138942 -0.362228 0.0163056 0.0819154 -0.178382 -0.206218 0.0817422 0.202803 -0.0367519 0.192426 0.336946 -0.248832 -0.448367 -0.462583 0.327707 0.120554 -0.226398 -0.012841 0.534871 -0.452129 0.412462 0.192352 0.0817791 -0.0149779 -0.0660479 0.141949 -0.165777 0.0727511 -0.00934284 0.247122 -0.292563 -0.129728 -0.275456 -0.0873466 -0.273695 -0.0544479 -0.298626 -0.257302 -0.592115 -0.473388 0.62256 0.245557 0.0279301 -0.107474 -0.170982 0.259401 0.337848 0.174694 -0.0198646 -0.3893 0.163903 0.133396 -0.17169 -0.0136678 0.0727383 -0.337923 -0.00721837 -0.160013 -0.219928 -0.450821 -0.168971 0.559335 -0.134027 -0.0458717 -0.228045 0.101813 0.110397 -0.164001 0.145762 0.195654 -0.334256 -0.126168 0.0110026 -0.0125739 0.0252513 -0.105959 -0.0111125 0.0124585 0.01663 0.0172013 0.235686 -0.06699 0.127722 -0.292791 0.12391 0.115972 -0.272909 -0.216058 -0.380418 -0.381342 0.280551 0.119935 -0.335847 -0.127395 -0.0808682 0.296635 -0.0795775 0.44591 -0.0182432 0.272147 0.321642 -0.108209 -0.0391457 -0.0830275 -0.0311716 -0.360847 -0.034599 0.232932 0.0390768 -0.238774 -0.142492 0.0912274 0.524393 -0.138911 -0.0690792 0.0430918 0.0048188 0.0945985 -0.0433268 0.00344173 0.150855 0.168839 -0.122921 -0.28897 0.0818055 -0.117887 -0.136357 -0.232299 0.279158 -0.0446971 -0.138979 0.395432 0.232547 -0.0293214 0.0422579 0.105844 0.0891846 0.226508 -0.318832 -0.0693985 0.259785 0.263036 0.353307 -0.304054 0.263509 0.0160724 -0.181196 0.254575 -0.21021 0.145141 0.238881 -0.232263 0.178377 -0.16661 -0.260004 -0.0430448 -0.0169314 0.154367 0.111878 -0.0566029 -0.138867 -0.0517613 0.0650167 0.20692 0.21134 -0.187827 -0.581172 -0.269857 0.271672 -0.194207 0.0667763 -0.192945 -0.337364 -0.0904966 0.137639 0.251079 -0.419053 0.278012 -0.0271095 -0.0745667 -0.0414506 -0.0773923 0.244021 0.0309957 0.0861584 -0.484038 0.106014 -0.129264 -0.0405621 -0.243633 -0.172331 -0.235771 0.0745559 0.508824 0.0707347 -0.0436645 -0.115065 -0.25415 -0.258569 0.0270395 -0.382818 -0.0661597 -0.147387 -0.332179 0.242986 0.281306 -0.200702 0.380337 -0.16264 0.273129 -0.171075 -0.0127417 -0.0451293 -0.203292 0.0401176 0.18286 0.320371 -0.0402473 -0.258497 -0.400684 -0.0991675 0.323586 0.137713 -0.0157441 -0.431646 -0.0677585 -0.306717 -0.0533647 0.0368575 -0.0574904 -0.123648 0.149307 0.0297743 0.122905 -0.0581933 -0.138922 -0.0732564 0.0902947 0.144778 -0.240277 0.0694035 0.138879 -0.101765 0.10321 0.143329 -0.168866 -0.0510933 0.101374 0.279083 -0.166866 -0.375155 0.126026 -0.0611416 -0.276418 -0.0252268 -0.157398 0.0616663 0.24385 0.230244 -0.127764 0.193128 0.0813072 -0.258008 -0.0990218 -0.161253 -0.465935 0.0963052 0.342911 0.326785 0.208302 0.055737 0.175137 -0.0181428 0.0205062 -0.0653838 0.240492 -0.257007 -0.273926 0.0224536 0.0876893 -0.424523 0.122331 0.0857684 -0.241312 0.118428 -0.152691 0.0590486 0.251037 0.208056 -0.34736 0.263845 0.0947439 -0.145904 -0.113147 0.123994 -0.239221 -0.273962 0.046265 0.245149 0.0750299 0.235856 0.320107 -0.237642 0.190631 -0.0434836 -0.171457 -0.461975 -0.0016843 -0.0472156 0.0282583 -0.0621197 0.00329197 0.327809 -0.249698 -0.162873 -0.0592293 0.221806 -0.208701 -0.212162 -0.147208 -0.295943 -0.0514856 -0.0432039 -0.0134457 -0.095998 0.200485 -0.181393 -0.374055 0.214875 0.245957 0.105225 -0.111827 0.102163 0.132874 -0.140867 0.337602 0.300427 -0.000853948 -0.0913532 -0.134818 0.0559148 -0.328995 0.624922 0.218007 0.295034 -0.0483804 0.19303 -0.101131 0.0375215 -0.101685 0.20217 0.0965839 -0.0208562 0.182982 0.0248824 -0.0053036 0.215057 0.0959436 -0.0571041 0.285601 -0.0257115 0.00574092 0.047281 0.0472768 0.0618156 -0.145557 0.332227 0.186741 -0.00763072 -0.395153 0.179932 0.251777 -0.165511
Maradona -0.0632785 -0.0153438 -0.26435 0.122114 0.0348829 0.308788 0.0473013 0.0205837 0.218578 -0.0658812 -0.164764 -0.374823 -0.0690093 0.0827445 -0.0489971 0.0343093 0.190656 -0.056266 0.00919815 0.18832 -0.110123 0.0407124 0.160985 -0.276091 0.102461 0.148072 -0.146358 -0.318694 0.199721 0.0654785 -0.113314 -0.1687 -0.417505 -0.182508 -0.196232 0.227453 0.111425 0.0348729 -0.221923 -0.538384 -0.397619 -0.300461 0.209008 0.238469 -0.259173 -0.456838 0.403533 -0.254818 0.198731 0.298481 0.206848 -0.115924 -0.107458 -0.12866 -0.208782 0.0551264 -0.114459 -0.163167 0.0857363 -0.528435 -0.210988 -0.0825085 0.384223 -0.342011 -0.68792 -0.278137 -0.297461 0.240335 0.546861 0.174796 -0.306083 -0.0147586 0.263842 -0.239192 0.585164 0.0131145 0.154664 -0.160385 -0.314281 0.152695 0.414596 -0.177584 -0.159558 -0.00638422 -0.307458 0.0348058 -0.045208 -0.12244 0.22499 0.288213 0.119256 -0.567146 -0.266217 0.0125007 0.0914664 0.130559 0.0631485 0.414069 -0.0593281 -0.0963645 -0.257719 -0.0387862 -0.00859857 -0.387478 0.128744 0.0596264 0.00345223 -0.063483 -0.365064 -0.154705 -0.210742 -0.0347744 -0.00399302 -0.0870723 -0.325763 0.262042 -0.310268 -0.347971 -0.148896 -0.0751394 0.352338 0.039841 0.269056 -0.299259 -0.33732 0.0649012 -0.0301023 0.448663 0.301143 0.0413035 -0.0170291 -0.123902 0.345398 -0.61637 0.00529841 0.173474 -0.328355 -0.175865 0.0903202 0.0326366 -0.179404 -0.0561482 0.500132 -0.0680867 -0.0717409 0.319061 -0.707657 -0.134514 -0.172121 0.0265121 -0.364491 0.0335346 0.568969 0.896111 -0.0360161 0.246376 -0.0516466 -0.366673 0.452555 0.303388 0.131602 0.205136 -0.163273 -0.213089 0.0057041 0.384864 0.284691 0.128052 -0.143527 0.168746 -0.127115 -0.139867 -0.107512 -0.0149261 -0.354316 0.401685 -0.249262 0.179629 0.374431 0.0514445 -0.331594 0.186544 -0.0151394 -0.224594 0.00197713 -0.151086 0.0370658 0.144963 -0.349714 -0.0443898 0.156752 -0.287401 -0.109732 0.412904 0.109424 0.277322 -0.00974764 -0.337207 -0.345826 -0.121198 0.261152 0.00695443 0.354933 -0.0703437 -0.163365 -0.179203 0.206196 0.162498 -0.388829 0.210767 0.301105 -0.0594057 0.22095 -0.419773 -0.278675 -0.118214 0.167565 0.110367 0.0998607 -0.201669 0.149102 0.397417 -0.0045692 0.53118 0.114 -0.190829 -0.268588 0.0446133 0.107752 -0.442351 0.232169 0.225073 -0.0925211 0.122278 0.0277924 0.112423 -0.111809 -0.138712 -0.227745 0.339936 0.628444 0.505245 -0.30453 0.16898 -0.396887 -0.0708519 0.307194 0.27878 0.208159 -0.0132597 0.0512738 -0.136948 -0.00411072 0.201464 0.0626744 -0.24705 -0.211208 0.350581 0.047066 0.00111436 0.550882 -0.0266817 0.448581 -0.134743 -0.349757 0.369363 0.283399 -0.021643 0.0228542 -0.0759395 -0.341124 0.442723 0.175534 0.281156 -0.367397 0.155267 -0.335296 0.354757 0.412735 -0.0998442 -0.270963 -0.0372965 -0.308087 0.385857 -0.507327 -0.136948 -0.0722485 -0.430642 -0.197107 -0.376514 0.205259 -0.116474 0.175887 0.271159 0.155503 0.0133835 -0.0107363 0.21052 -0.227795 0.00721278 0.227441 0.102018 0.210187 -0.445787 0.146022 -0.10052 -0.0356816 0.351217 0.234763 0.0710457 0.329753 -0.504056 0.236879 0.126769 0.56586 0.376882 -0.265786 -0.0309466 0.256271 0.263316 0.212122 0.190577 -0.0605796 0.125818 -0.213441 -0.100413 0.300868 -0.346064 0.27396 -0.121996 -0.0579177 0.23035 0.216694 -0.184718 -0.503079 0.236248 0.108108 0.28412 0.249561 0.462744 -0.186138 -0.117297 -0.474297 -0.0766778 -0.339813 0.3314 -0.607781 -0.23649 -0.0897013 0.199225 -0.089195 0.0612084 -0.0481086 -0.135791 0.183399 -0.00465412 0.18032 0.59571 0.107194 -0.0297828 0.237977 0.0458798 0.0718152 -0.336704 -0.389128 -0.383608 -0.619684 -0.046782 0.104438 -0.4139 -0.387142 0.257157 -0.348773 0.157416 0.232883 0.324628 0.0678457 0.0988601 0.255268 0.0792838 -0.284497 0.363236 -0.0738645 0.143533 0.515252 0.145534 0.0714513 -0.0350599 -0.0990259 0.030106 0.422912 -0.047913 0.0991073 -0.0965272 -0.169371 -0.180994 -0.543497 -0.268535 0.275191 -0.207942
liability 0.445091 -0.09067 0.0443931 -0.0855766 -0.118743 0.088383 -0.0312791 -0.0349593 -0.325638 0.265613 0.0686067 -0.316645 -0.399282 -0.267433 0.121054 -0.196545 -0.15256 -0.014707 -0.0786283 0.192623 0.160363 0.101507 0.0373472 -0.191595 -0.315571 -0.230743 -0.103033 -0.217823 0.0692612 0.546186 -0.246551 -0.217566 0.289178 0.196899 0.154777 -0.112126 -0.191332 0.231559 -0.170489 -0.0854238 0.161406 0.249577 -0.0635551 0.228914 -0.03275 -0.430882 -0.25986 0.4193 0.196644 0.161366 -0.0775544 0.254992 0.146446 0.22629 0.114529 -0.423764 0.076174 -0.0035801 -0.00761642 -0.236778 -0.278312 -0.26098 -0.200359 0.178635 -0.240456 -0.0910188 -0.229333 -0.141745 -0.238715 -0.134501 -0.0311257 0.0657681 -0.0499015 0.00454538 0.283661 -0.434569 -0.142055 -0.0131073 0.270641 0.2506 0.0416679 -0.442089 -0.0993877 -0.126339 0.124485 -0.0697238 -0.133128 0.0529853 0.00342449 0.0633229 -0.337251 0.055095 0.149262 -0.310006 -0.0606911 0.164425 -0.0533256 0.483197 -0.170982 -0.0371273 0.202973 -0.16773 -0.060468 0.00862662 -0.00865423 -0.401184 -0.110299 0.224865 0.0371798 0.021556 0.228904 -0.291343 0.0770662 -0.158803 -0.417022 0.12525 -0.360482 -0.0794288 -0.228131 0.113071 -0.199699 -0.127817 -0.429501 0.136482 -0.307768 -0.11161 0.0929626 -0.171915 -0.0293145 0.186374 -0.100104 0.447175 0.144406 -0.293253 -0.20038 -0.0350686 0.177379 0.218456 0.117926 0.102056 -0.1967 -0.227562 0.0226018 0.00118503 0.322068 -0.048708 -0.258727 0.0916833 0.608537 -0.202394 0.0819093 0.232011 0.3832 0.17142 -0.25281 0.383357 0.229719 -0.179402 -0.295659 0.424312 -0.474029 -0.308596 -0.577662 0.0133093 -0.0612587 0.12593 0.138374 0.191222 0.043547 0.447735 -0.17234 -0.238697 -0.182697 -0.303481 -0.211399 0.157268 0.0366028 0.235389 -0.156902 -0.322305 0.417048 -0.0771287 0.123198 -0.169728 -0.538873 -0.388393 -0.0550025 0.0249938 -0.306817 -1.99923e-05 0.458563 -0.106631 -0.254966 0.0666804 -0.422186 0.128547 -0.0950291 -0.22622 -0.08688 -0.189876 0.0560442 0.0833505 -0.174766 -0.146956 0.0197572 0.193486 -0.079561 0.150209 -0.51561 0.205319 -0.0650318 -0.176942 0.129494 0.225336 -0.257789 0.241028 -0.121537 -0.104973 0.146877 -0.394791 0.0478452 0.253903 0.172681 0.284716 0.0213385 0.00364951 -0.0487937 -0.241425 -0.409266 -0.4159 0.0701877 -0.0609375 0.337285 -0.141137 0.185472 -0.213525 -0.0231782 0.0899995 0.0896029 0.283406 -0.107655 -0.0646134 -0.21568 0.0975091 -0.0467054 -0.250094 -0.234254 -0.0633954 -0.16959 0.00591194 0.283 -0.0165674 0.0892617 0.129419 0.29539 0.0332434 -0.118174 0.119024 -0.34192 -0.268726 0.0386297 0.221786 0.124122 -0.331323 -0.456709 -0.238694 -0.0662743 -0.308754 -0.20695 0.000202204 -0.0408289 -0.218735 -0.157782 0.0526455 0.00980246 -0.116015 0.208884 0.366085 0.0387536 -0.134199 -0.0780698 -0.322983 0.206503 -0.133623 0.316203 0.0271839 0.438911 -0.141179 -0.180634 -0.114741 0.417522 0.343007 0.0347752 0.179674 0.746144 0.153418 -0.462294 0.0601642 -0.38604 -0.0524296 0.0342719 -0.146209 0.0672027 0.400967 0.0559515 0.282475 -0.247888 0.152299 0.182857 0.269523 -0.0591204 -0.0109508 0.209761 -0.447248 0.317271 -0.182872 -0.198421 0.331235 0.169981 0.148214 0.18626 0.0514175 0.0699501 -0.125807 -0.14951 -0.122909 -0.332723 0.231045 -0.35582 -0.145288 -0.0505551 0.197832 -0.163677 0.0229335 0.0507315 0.15361 -0.000925671 -0.0930485 -0.0356314 0.430674 -0.279605 -0.220663 -0.138459 0.00128416 -0.264179 0.16017 -0.110717 0.0361388 -0.344968 0.208584 0.243102 0.0227518 0.237343 0.0240019 0.179292 0.316288 -0.0770643 -0.438613 0.177957 0.246926 0.108585 0.0720458 0.182955 -0.233889 -0.297265 0.529706 0.191031 0.0517377 -0.040951 -0.110559 -0.151207 0.127995 -0.0889591 0.272017 -0.0534705 -0.105934 0.272571 -0.211096 0.48735 -0.132685 -0.0519131 0.332469 -0.270595 -0.150812 0.100899 0.0851037 0.292823 0.13081 0.267425 -0.120156 -0.0290239 -0.04013 -0.491627 -0.505325 -0.449137 0.0683203 -0.179414 0.130253 0.0870078 0.142102
ticket 0.287448 -0.137249 -0.00445269 0.0488009 -0.375583 -0.190366 0.267888 -0.0359765 -0.169434 -0.206076 0.127788 -0.239011 0.260377 -0.140903 -0.00461533 -0.00781951 -0.0910471 0.196547 -0.250042 0.212133 0.139099 0.365508 0.226954 0.0965191 0.341376 0.222937 -0.369197 0.25378 0.0730717 -0.244054 -0.422343 -0.0244899 0.100413 0.512607 -0.469825 0.0687932 0.00225285 0.156604 -0.207612 -0.634152 -0.112943 0.0346239 -0.0331941 0.0158875 -0.1836 0.0558409 -0.216123 -0.0580964 0.138247 -0.153658 -0.306032 -0.21715 0.18746 -0.307944 0.255926 -0.392816 0.0197194 0.0710419 0.608636 -0.301895 0.0334284 -0.0495972 -0.0427508 -0.0414036 -0.189344 0.219453 0.265717 -0.102327 -0.084059 -0.0580234 -0.173855 -0.293495 0.0524251 -0.0514114 -0.0530656 0.136593 -0.0321991 -0.112445 0.470764 0.54768 0.0340704 -0.108335 -0.229383 0.0974147 0.310633 -0.140844 -0.0799461 -0.512422 0.128363 -0.0646835 -0.219305 0.477238 -0.0356802 0.279028 0.109335 -0.201147 0.286966 0.506681 -0.30156 -0.200015 0.214752 0.25551 -0.0527794 -0.284452 0.189512 0.347731 0.00232793 0.110149 -0.314497 -0.105629 -0.232804 0.207787 0.258301 0.545258 0.0379078 0.192054 -0.195856 -0.0438143 -0.145596 -0.233605 -0.191098 -0.361102 0.0250839 -0.283096 0.154903 -0.0794024 0.197032 0.0500905 0.0496341 -0.0271405 -0.127052 0.0430857 0.0928394 -0.66053 0.288072 0.0511378 -0.268239 -0.0677165 0.00565058 -0.0752536 -0.19262 -0.195555 0.177719 -0.531883 0.399176 -0.0643062 0.107192 0.0785874 -0.0777633 -0.111033 0.201932 0.270404 -0.0404906 0.094179 -0.071661 -0.0892741 -0.0638844 0.116327 -0.0313726 -0.0495475 -0.032018 0.241466 -0.0856609 -0.330642 -0.0363327 -0.0581307 -0.375593 -0.0488965 0.473948 0.164046 -0.13223 -0.0892785 0.226738 -0.0270783 0.265624 0.0182588 0.235834 0.242001 0.427699 -0.408543 -0.351172 0.118867 0.240687 0.100453 -0.0823828 -0.164415 -0.27043 0.248621 0.0356983 0.132285 0.415479 -0.080597 -0.271448 0.319115 -0.105496 0.0391893 0.0625306 -0.0985508 -0.218426 -0.216925 0.423653 0.300122 -0.0808196 -0.0461947 -0.0747789 -0.332093 -0.0053893 0.20107 -0.428366 0.0653514 -0.10225 -0.13859 -0.218758 -0.119499 0.49263 -0.142888 0.0709847 0.252761 0.258377 -0.200558 0.124135 -0.210595 0.215984 0.0635534 -0.0299219 -0.335557 0.17531 -0.0820713 -0.229028 -0.186545 -0.209703 -0.271183 -0.00985663 0.024604 0.0480621 0.00140922 0.251702 -0.334042 -0.491079 -0.0906044 0.134265 -0.00135931 -0.307092 -0.111284 0.142592 0.24072 -0.080898 0.0773327 -0.189502 0.449517 0.0661698 0.218633 0.387628 0.022922 0.386767 0.142533 -0.671766 0.00952688 0.0774684 -0.0591966 0.0694243 0.205196 0.128899 -0.289619 -0.128469 0.227822 -0.0150596 -0.143825 -0.118023 -0.0510135 -0.0547354 -0.2294 0.190879 0.027925 -0.153091 0.295157 0.192935 0.499401 0.373848 0.00824632 -0.37116 0.0337375 -0.167398 0.160463 -0.0014325 -0.0180258 0.01991 -0.229342 -0.270756 -0.232218 0.00368753 -0.0706279 -0.144947 -0.00110116 -0.288832 0.271403 -0.445991 0.163886 0.0109128 -0.00895202 0.103288 0.252616 -0.153403 0.0957091 -0.297643 -0.0600717 0.125925 -0.379137 0.00375596 0.125611 -0.0516918 -0.253388 0.071719 -0.147296 -0.0948267 0.186668 -0.411293 -0.0519125 -0.198039 0.598272 0.214389 0.00584203 0.180476 0.00938109 0.0996503 0.19643 0.0175283 0.236333 -0.17164 -0.279316 -0.143916 0.0539567 0.317336 -0.0296439 0.0245189 0.102466 -0.179324 -0.0755367 0.0276341 0.326472 -0.0260736 -0.453183 0.475808 0.0599339 0.18676 0.145273 -0.0256062 -0.203354 -0.0574315 -0.112298 0.335582 -0.365105 -0.00103559 0.0461833 -0.295604 0.287206 0.149656 -0.499613 -0.15307 0.09949 0.099153 0.152966 -0.0138349 0.121599 0.20518 -0.249867 -0.377266 -0.0331896 -0.199236 0.00541356 -0.249008 -0.257401 0.0597589 -0.121548 -0.164222 -0.0786413 0.326943 0.220991 0.177235 -0.137805 -0.00312268 -0.224243 -0.171019 0.199149 0.259093 0.312174 -0.0882665 0.372864 0.425736 -0.123926 -0.285542 -0.186893 -0.0702914 -0.499132 0.478146 0.332334 0.0369093 0.180229 0.158014 -0.152773
school 0.26875 0.184957 -0.0708022 0.316904 0.237087 -0.0847407 -0.054054 0.0358418 0.243398 0.262048 0.0210256 0.00234465 -0.0366535 -0.215813 -0.174259 -0.399017 -0.0562723 -0.220466 -0.179603 -0.154522 -0.344958 0.0478979 -0.0200189 0.122294 -0.029762 -0.039261 -0.122555 -0.209688 -0.316752 -0.405536 -0.238992 0.0932243 0.0863375 0.0105519 0.0328952 0.237718 0.126038 -0.0462441 0.244499 0.172042 0.072623 0.12543 -0.0411955 0.176119 -0.084127 0.0647468 0.0879947 0.222349 0.101015 0.19598 -0.16301 0.158182 -0.0490536 -0.124919 -0.132373 0.116524 0.00230745 0.14119 0.0741301 -0.456324 0.0327522 -0.0281507 0.0228116 0.10435 0.311749 -0.112466 -0.266219 0.0619627 0.250787 -0.004964 -0.0509087 0.207365 0.137566 -0.0716937 0.142434 -0.0590175 -0.323198 0.171234 0.040993 0.329692 -0.0510299 0.0888387 -0.229781 -0.0581203 0.113854 -0.327365 -0.0641847 -0.447286 0.0127938 -0.381476 -0.282658 0.286411 -0.258009 0.241782 0.240384 0.287625 0.0229832 -0.124116 0.0315822 -0.048911 -0.224359 0.232515 0.150547 -0.132108 0.238392 -0.323403 -0.01351 0.0762828 -0.408257 0.0894991 -0.193794 0.134501 0.433631 0.07489 -0.0787276 -0.0281317 -0.068072 -0.0409624 -0.0218982 -0.200714 0.184203 0.380816 0.042224 -0.247766 -0.213715 0.00481373 0.213071 -0.0570763 0.300971 -0.0824027 -0.17797 -0.0601856 0.103432 -0.233462 -0.0617618 0.0333419 -0.265669 -0.21592 0.240836 -0.121774 0.117581 0.101075 0.305675 -0.309754 -0.0489048 0.0817248 -0.0933797 0.152452 0.2542 0.0640895 -0.118476 0.259628 0.0388425 0.0839563 -0.128856 0.150121 -0.101875 -0.177344 0.219011 0.0862344 0.254892 0.157735 0.0473777 0.00102511 -0.0136951 -0.0708912 0.0386613 -0.0152562 -0.383632 0.105667 -0.175536 -0.201994 -0.266639 -0.0692045 0.00589462 -0.205578 -0.0439514 0.299512 0.148131 0.0206772 0.0088365 0.0780651 -0.0127281 0.129436 0.471882 0.250183 -0.0852017 0.210207 0.348877 -0.201476 -0.0307217 -0.143242 0.0921449 -0.0653251 -0.269237 0.00154206 -0.12458 -0.0344898 -0.0820338 0.122284 0.177043 0.172768 0.0589821 0.0354518 0.171123 -0.119372 -0.2712 -0.321816 0.168306 -0.0214645 -0.0704913 -0.21723 -0.306595 -0.246252 0.151768 0.0204133 -0.13277 -0.157855 -0.0935357 -0.139143 -0.0199452 0.0391895 0.154466 0.15969 -0.0141577 -0.218301 0.414011 0.260718 0.265167 0.192514 0.289809 -0.0115047 0.0274668 -0.013275 0.262758 0.0915054 0.00646259 0.0714004 0.0646074 0.0688492 0.12017 -0.289424 -0.102027 0.0522003 0.249169 -0.0712759 -0.160966 0.164519 0.104154 -0.24764 -0.0769254 -0.486241 0.0709397 -0.287132 0.070773 0.225671 -0.0602938 -0.155858 -0.0624441 -0.0591031 0.405782 -0.281155 -0.232127 -0.0858123 0.380426 0.214073 0.124886 0.0929347 0.0258823 -0.13737 0.0237527 0.11716 0.234342 0.104328 -0.297451 -0.010129 -0.109391 0.0635513 -0.0596527 0.212906 0.219036 -0.143478 -0.250978 0.132457 0.00328551 -0.114535 0.0910103 0.112697 0.16096 -0.48803 -0.0625199 0.0987765 -0.183576 0.355035 0.0835817 0.0330836 -0.178395 -0.0301708 0.0857052 -0.000279743 0.0764948 -0.0809805 -0.436124 -0.0435475 -0.239575 -0.018385 -0.147048 -0.0391789 0.501942 -0.126653 -0.163382 -0.0474301 -0.269568 -0.153996 0.289268 0.118361 -0.299681 0.0318981 0.124622 -0.252314 0.0107325 -0.118931 0.149189 -0.153168 0.0898997 0.304561 -0.152612 -0.0483068 0.0302494 -0.245045 0.0501807 0.265907 0.119745 0.124444 -0.038712 0.345877 -0.338002 0.1812 0.105611 -0.23208 -0.177322 -0.0412554 0.0518411 0.153519 -0.383411 -0.0675349 0.278919 -0.168604 0.196004 -0.300998 -0.247651 -0.029067 0.0995978 0.262095 -0.133876 0.0890595 0.180826 -0.094044 -0.0229102 -0.171813 0.136858 0.093545 0.0361077 -0.207137 0.000779457 0.192796 -0.407715 0.0908285 -0.108203 -0.0598512 -0.340883 0.15194 0.130346 -0.116359 0.0738174 -0.261883 -0.0796922 0.12815 -0.350001 -0.254872 0.087596 -0.118026 -0.15206 0.389019 0.212241 0.484412 0.00796488 -0.167972 0.617474 -0.370959 -0.134462 0.112499 -0.0978837 -0.127617 -0.0994647 -0.0616394 -0.0805564 0.11826 -0.180277 0.0701013
gender 0.0518899 0.502143 -0.141405 0.0979474 0.0919577 -0.180691 0.322646 -0.149481 -0.461803 0.0813414 0.139747 -0.0788037 -0.650426 0.519626 0.160334 0.192392 0.0930309 -0.0143748 -0.0080925 -0.100438 -0.122665 0.0900759 0.258328 -0.135925 -0.0371398 -0.0319116 -0.471069 0.0542098 0.242274 0.126339 -0.0360147 0.186902 -0.0369326 0.026495 -0.0380084 0.165356 -0.318308 0.174715 0.473602 0.137916 -0.414544 0.0041568 -0.251575 -0.352447 0.123452 -0.432197 -0.0231936 -0.133079 0.275489 0.315343 -0.262999 0.0502622 0.388337 -0.0352815 -0.350978 -0.0116895 0.301658 0.356273 -0.0252832 -0.187522 -0.171591 0.576618 -0.277413 -0.0703227 0.00553695 0.151517 0.20653 0.122631 0.102483 0.228217 -0.470563 -0.110993 -0.00581677 0.0394641 0.55896 -0.320238 -0.236525 0.321164 0.297779 0.091533 -0.138734 -0.615574 -0.252153 -0.107008 0.202565 0.0927487 -0.242725 -0.490472 0.362651 -0.149736 -0.227395 -0.0995452 0.120793 -0.208881 -0.312467 -0.31868 0.270569 0.238783 0.214871 -0.261249 -0.0602065 -0.233124 0.236125 -0.0884201 0.261332 0.129405 -0.129052 0.0113849 0.401834 -0.107571 -0.453738 -0.428019 -0.0424624 -0.221035 0.31616 -0.172273 -0.380209 -0.354019 0.097779 0.0755454 -0.109033 0.0772888 0.128434 0.0532036 -0.207282 0.0684414 -0.0127703 0.0888512 0.139431 -0.454125 -0.0944709 0.110509 -0.165655 -0.224043 -0.188251 0.265974 -0.411088 -0.0100783 0.170768 0.0314286 -0.366734 0.117424 0.070352 -0.140065 0.0059367 -0.00162174 -0.0528277 0.4658 0.54145 0.0102382 -0.183485 -0.0844396 -0.0584003 -0.249827 0.0347462 0.68282 -0.0481523 0.0810685 -0.169425 0.246731 -0.187093 0.229047 -0.0975171 -0.529945 -0.255345 0.149915 -0.114666 -0.28859 -0.340473 -0.158492 -0.120623 -0.0310445 0.19305 -0.507632 0.486856 0.112178 -0.207389 -0.0758217 -0.203783 0.0389258 -0.0929119 0.125074 0.0380121 -0.198786 0.161333 -0.123249 0.0818612 0.307099 0.0748661 -0.159668 0.168263 -0.252994 -0.0745027 0.192277 -0.0460259 -0.0195926 0.0108607 0.271403 -0.192096 -0.337009 0.20493 0.277044 0.325319 0.0437175 -0.143092 0.218432 0.336214 -0.2206 -0.156355 -0.0710934 0.227797 -0.0112655 0.16048 0.209795 -0.0922348 -0.0511025 -0.0640495 0.120319 0.426343 -0.286133 0.278787 -0.130677 0.182552 -0.1847 -0.0778786 -0.637697 -0.0283499 0.161389 -0.345354 -0.4306 0.0413788 0.15851 -0.0551108 0.491861 0.0313922 -0.121936 0.115809 0.0352487 -0.066006 -0.0043852 -0.104468 -0.349173 0.175735 -0.154026 -0.305018 -0.091544 -0.452648 0.358172 -0.121445 -0.0122748 -0.31602 0.189212 -0.176994 -0.0216065 -0.107901 0.0125916 0.0153551 -0.23628 -0.0279903 0.178985 0.130144 -0.350085 -0.117803 -0.0257552 0.145506 -0.00290242 -0.205115 0.100094 0.284413 -0.0976156 -0.204353 -0.113689 0.234158 0.268545 0.145694 0.56074 0.245326 0.0207559 0.10371 -0.133542 0.227674 0.156461 0.168464 0.376431 -0.169802 -0.0245962 -0.161029 0.446895 0.044413 -0.0849985 -0.134659 0.260574 0.169018 -0.0356509 -0.130208 0.530582 0.0241994 -0.184702 -0.126817 0.574 -0.226831 0.342997 -0.181019 0.390622 0.252748 -0.215662 0.43378 -0.331142 0.182145 0.163094 0.197818 -0.0324723 -0.373013 -0.0630627 -0.0156659 0.0496179 0.167769 0.0735984 0.495779 0.00107833 -0.18145 -0.199436 -0.047771 -0.406306 0.0265676 0.210977 -0.0920918 0.0997382 -0.0528317 0.162582 0.114899 0.252889 -0.0896852 0.200619 0.201803 0.0140057 -0.106419 -0.0614682 -0.295893 -0.46299 -0.0460686 -0.202793 -0.637313 -0.0163112 -0.245459 -0.238489 -0.336616 0.191346 -0.239824 0.272641 -0.191033 -0.389203 -0.230481 0.544169 -0.401718 0.485217 -0.305316 0.00407217 0.0463152 0.0482741 -0.0436494 0.027996 0.0787212 0.215852 -0.0769559 -0.0341923 0.00222131 0.0679909 -0.422847 -0.149008 -0.0638265 0.0255697 -0.675498 0.0547356 -0.0665842 -0.0306107 -0.536157 -0.215246 0.434728 -0.287657 -0.0538332 0.285252 -0.498035 0.278033 0.183228 0.0470953 0.385238 -0.0999299 0.480245 0.285218 -0.00433877 -0.0148221 -0.176009 -0.644655 -0.162777 0.0877999 0.157248 0.228963 -0.0148878 0.214666
brother -0.251165 0.22226 0.433024 0.0186877 0.104128 0.243656 -0.0892499 -0.0736917 -0.0276734 0.046986 -0.00922297 0.0474479 0.00936776 0.119355 -0.30783 -0.0901669 -0.197567 0.13891 -0.137058 -0.324602 -0.0468963 0.262185 0.243044 0.0747967 0.172387 -0.226356 0.255933 -0.153469 -0.137819 -0.217893 0.0844407 0.238527 -0.0187927 -0.0951867 0.0813663 0.0924495 0.010149 0.350066 0.0422051 -0.172009 -0.249649 0.177384 0.0686685 0.107899 -0.18387 -0.208536 0.196214 -0.203942 -0.270601 0.0674432 0.211627 0.0220608 -0.209711 -0.211346 -0.119093 -0.176696 0.470084 -0.265467 -0.0280787 -0.416939 0.0703906 -0.00760241 0.275161 0.14658 0.121053 -0.0955955 -0.225063 0.145011 0.678906 0.277039 -0.0165444 0.184176 0.190962 0.245917 0.245595 -0.0119007 -0.30989 -0.0746707 -0.00920207 -0.441764 0.0373548 -0.282368 0.246376 -0.129456 0.028386 -0.136552 0.15781 -0.164918 0.189384 -0.042534 -0.0394734 0.152411 -0.113657 0.447791 -0.236875 0.0485625 0.064166 -0.0179748 -0.0747699 -0.326705 0.0340845 0.0849026 0.191011 -0.0430397 0.157305 -0.558792 -0.225454 0.0977558 -0.313997 -0.0787626 -0.185914 -0.0917293 0.277498 0.197048 -0.115655 -0.181489 -0.0309677 0.345623 0.0933528 -0.192249 0.0323423 -0.223648 -0.166248 -0.214084 -0.23914 -0.0800172 -0.166365 0.0193984 0.130686 -0.113544 0.311076 -0.431333 -0.081683 0.0563439 0.0252955 0.0449886 0.217895 -0.14174 0.261746 0.261694 -0.208108 0.105838 0.391709 -0.467348 -0.0271936 0.236511 -0.130741 -0.107567 -0.23244 -0.299544 0.420395 -0.0285137 0.180408 0.257287 -0.0920087 0.230458 -0.243201 0.11449 -0.0833548 0.205421 0.054821 -0.0440955 0.0192085 0.216942 -0.101783 0.223726 -0.0445509 0.100467 -0.237332 0.00564688 -0.165602 0.229431 0.138398 -0.460217 -0.0326851 -0.366826 0.118699 0.0329959 0.108145 -0.188492 -0.243357 0.0121397 0.240701 0.134188 -0.254962 -0.0876219 0.212743 -0.10967 -0.497095 -0.378457 0.224492 -0.238557 -0.0236432 -0.193761 0.451875 0.0790955 0.205347 0.0631037 0.415875 -0.281359 -0.113703 0.234179 0.126494 -0.164106 0.129299 0.109411 -0.0092567 0.262716 -0.0750996 -0.170744 0.467821 -0.529119 0.0265613 0.0875063 -0.0803847 -0.0638432 -0.195277 -0.144997 0.1526 -0.343982 -0.0489948 -0.129923 0.502134 0.0185346 0.054374 0.379507 0.269929 0.323725 0.0188965 -0.358355 -0.161301 -0.235144 -0.0893282 -0.261113 -0.0819907 -0.204162 -0.231891 -0.162141 -0.271838 -0.0599555 -0.105234 -0.129652 -0.216606 -0.170721 -0.0358609 0.030936 -0.00864241 -0.0706356 -0.138152 0.125586 0.201484 -0.12843 0.288091 -0.315904 0.109913 0.0707318 0.104371 -0.213614 -0.0575894 0.191578 0.0974263 -0.385709 -0.409645 -0.171637 -0.121925 -0.116036 -0.0824672 0.132698 0.0695945 -0.159165 0.170622 0.214789 -0.0572041 0.118073 0.0329695 0.187214 0.0534716 0.128335 0.415271 0.126592 -0.0321545 -0.219759 -0.08966 0.110072 0.0218835 -0.0440892 -0.270399 -0.146953 0.239658 0.0826207 -0.205448 0.136166 0.208208 0.0466303 -0.289548 -0.132271 -0.169352 -0.0412353 0.294642 0.281247 0.244114 0.183623 0.042907 0.0415635 -0.314454 -0.0406162 0.326256 -0.00238516 0.21485 -0.0842172 -0.0935823 -0.166402 0.138489 -0.188349 0.200251 0.223663 -0.342655 0.038674 0.0721719 -0.0750815 0.188558 -0.242615 0.110354 -0.0132065 -0.339063 0.539661 0.343951 -0.138604 -0.15368 0.0459041 -0.004481 0.323566 -0.110856 -0.055873 0.00203153 0.147952 -0.163104 0.0489314 0.137276 0.248927 0.154548 -0.307566 -0.020811 -0.0249829 -0.721671 -0.0934803 0.148727 0.0193825 0.124652 -0.00225903 0.0244786 0.0674921 0.00106864 0.371629 0.117548 0.16975 0.135517 -0.0553036 -0.108235 0.254967 -0.0215297 -0.215866 -0.137571 0.111982 -0.214586 0.280772 -0.148528 0.622902 -0.128097 -0.286591 -0.156655 0.0002318 0.197238 0.028038 0.14825 0.18452 0.095557 -0.0789605 0.141463 0.161038 -0.0273691 0.295957 -0.389947 0.475884 0.295513 0.16931 0.130822 0.121739 -0.152755 0.149127 0.765282 0.276145 -0.21263 -0.120183 -0.0909851 0.153961 0.0176139 -0.00714155 0.189476 -0.323259
car 0.304093 0.320152 0.0742926 0.220561 0.187678 0.0359433 0.132103 -0.22815 0.161388 -0.199892 -0.0889983 -0.391713 -0.329282 -0.295021 0.0618001 -0.19431 0.0598648 0.12324 0.206379 -0.221852 -0.0152694 0.00445982 -0.0107144 0.156805 0.00447249 -0.00102217 -0.16613 -0.153323 -0.105516 -0.349512 0.014596 -0.056251 -0.217934 0.0979191 -0.125446 -0.0740701 -0.193364 -0.283313 -0.255049 -0.458611 -0.080398 0.154957 -0.241331 -0.0114906 -0.0156501 -0.0875451 0.110618 0.198777 -0.142191 0.331079 -0.523107 -0.130933 -0.0562892 -0.0880243 -0.0951673 -0.0462156 0.173652 -0.0989329 0.130163 -0.139297 -0.242506 0.08918 -0.0258803 0.336054 0.14629 -0.0794319 -0.261593 0.176236 0.109409 -0.222962 0.0491972 0.223601 0.201921 -0.296563 0.0432324 -0.2076 -0.133803 0.0106075 0.117243 0.165265 0.0241668 -0.0261897 -0.0331712 -0.161096 0.151709 0.0433045 -0.146832 -0.0469362 0.292044 0.393316 -0.0601773 0.105699 -0.205924 0.114335 0.157893 0.155744 0.221914 -0.0660291 -0.1983 -0.185556 -0.052821 0.304107 -0.252417 -0.264662 -0.0203507 0.203406 0.350782 -0.113169 -0.000133304 -0.248922 0.06204 0.354076 -0.108595 -0.00427759 0.190561 -0.352254 -0.25177 -0.19713 -0.0846849 -0.0117366 -0.175958 -0.54292 -0.0790653 0.193454 -0.198904 -0.150814 0.194851 0.0957183 -0.0324866 0.208204 -0.0631524 0.205419 0.037238 -0.166686 -0.0897406 0.270179 -0.10957 0.0726572 0.0360077 0.464897 0.16383 -0.0385998 0.348685 0.192001 -0.0741319 -0.148352 0.0210676 0.00534435 0.0846519 -0.162205 0.203599 0.218651 -0.0373686 0.140552 -0.00414475 0.206688 -0.240877 -0.107914 -0.193937 0.0435377 -0.0573648 0.315611 0.035862 -0.238289 -0.0443441 0.342855 -0.331886 -0.153413 0.355423 0.28077 -0.0118022 -0.00298222 0.00679002 -0.211691 -0.137681 -0.173811 -0.116994 -0.00287554 0.235815 -0.281537 0.241072 0.0278029 0.258868 -0.130924 -0.562614 -0.205321 -0.0260023 -0.0815964 -0.351427 0.284314 0.117699 -0.0066071 0.192227 -0.143825 -0.270166 0.13022 0.300954 0.259779 -0.203185 0.0818564 0.267355 0.366702 -0.111409 -0.505274 -0.0310791 0.309933 -0.220866 0.0677765 -0.210927 -0.0759205 -0.138275 0.0418893 0.121164 0.108508 -0.0338432 0.0634441 -0.305289 0.112703 -0.0934651 -0.224247 0.310417 -0.0228324 0.323584 -0.190211 0.0559127 -0.0933558 0.414698 -0.333514 -0.195908 -0.318842 -0.154409 0.233647 -0.191712 0.121611 -0.162348 -0.0107605 0.0621707 0.105025 -0.4004 0.282979 -0.230752 0.127152 0.135278 -0.275094 0.188381 0.151423 0.194554 0.0327051 0.377159 0.093472 0.00334027 -0.0881571 0.147518 -0.199329 -0.268569 0.0640906 -0.291022 0.0699599 0.284522 0.0515014 0.244415 0.0617877 -0.209816 -0.135096 -0.0706409 0.198018 -0.15946 0.00734024 0.114941 -0.0851098 0.185769 -0.201708 0.0777609 -0.0977336 -0.0582829 -0.0253412 0.249081 -0.062586 -0.203115 0.0985803 -0.009273 -0.151906 -0.0481088 0.249219 -0.000999928 0.10999 -0.106981 0.0480125 -0.174903 -0.0642321 -0.162535 0.146148 0.274925 0.306989 0.106602 0.0125795 -0.0576783 0.12523 -0.133727 0.125266 0.101038 0.126955 -0.043113 -0.111302 -0.30389 0.139123 -0.0797352 -0.0669809 0.224301 -0.121442 0.054548 -0.17663 -0.00993702 -0.00761682 -0.297428 0.0810452 -0.496905 0.265593 0.0938429 0.134977 0.0987602 -0.143681 0.274838 0.117232 -0.272582 0.154792 0.119285 0.00900133 0.0530367 -0.0227882 0.107687 0.116922 -0.213131 -0.304305 -0.0106577 0.138888 0.00337806 -0.168141 -0.0213177 0.114674 -0.0368566 -0.155978 -0.0849189 -0.369066 -0.558457 -0.0169619 0.230898 -0.131188 0.171294 -0.136481 0.00370409 0.469366 -0.0387279 -0.181641 -0.110827 -0.135026 -0.0594942 -0.278239 0.099763 0.430519 0.191259 0.331251 -0.0448501 -0.0146901 -0.187138 0.073136 -0.0840898 0.374792 0.135315 -0.0381615 -0.256833 -0.0661702 0.112002 0.283062 -0.105909 -0.104406 0.186418 -0.120797 0.071193 0.128033 0.24567 -0.0133352 -0.126639 -0.26812 0.195671 0.225453 -0.131098 -0.0503463 0.228303 -0.331389 -0.020354 -0.0482878 0.328181 -0.109343 0.0108157 0.0118568 0.316192 0.572808 -0.309647 0.231615
mammal 0.0498474 0.156918 -0.182622 -0.0970289 -0.0276496 0.01956 0.379075 -0.189493 -0.0760296 0.34146 -0.380959 -0.405439 0.094431 0.162266 -0.0744983 0.0657042 -0.0882895 -0.262639 -0.165222 0.141815 0.24279 -0.358684 -0.0288572 0.216758 -0.113702 -0.0837325 -0.135203 0.0513119 -0.0161343 -0.00745968 -0.266328 0.318202 -0.0558702 -0.290376 0.0545901 -0.406087 -0.0484777 -0.288117 0.0554667 -0.0342229 0.158897 -0.129544 -0.27233 -0.128747 0.138293 -0.429878 0.375467 0.384794 0.186132 0.334611 -0.227856 -0.19338 0.507974 -0.371732 0.111221 0.168004 0.0978903 -0.193302 0.128792 -0.114096 0.335376 0.222497 0.0917786 -0.0824792 0.0722843 -0.0417444 -0.0864216 0.13658 0.39483 0.215065 -0.119191 -0.0316373 -0.0505741 -0.0772757 0.119776 -0.124739 0.109109 0.24683 -0.0516176 -0.133213 -0.0324602 -0.254022 -0.0511101 0.16385 -0.154391 0.208052 -0.171623 -0.39686 0.231897 -0.431071 -0.2097 -0.364845 -0.128396 0.273867 -0.23917 0.271583 0.376956 -0.172056 -0.109547 0.411955 -0.24219 0.221505 0.0301899 0.265934 0.123664 -0.358181 0.210238 0.0858513 -0.0570458 -0.169009 -0.117945 -0.0976372 0.145718 -0.0526557 0.117782 -0.0329513 -0.206177 -0.376967 0.174067 -0.50136 0.0302033 0.357745 0.0549455 -0.0886276 -0.124952 -0.202764 0.0100845 0.022692 0.322436 0.24921 0.180875 0.0687247 0.0767145 -0.230937 -0.384559 0.114331 0.0191632 -0.360445 -0.692365 -0.0907279 0.198989 -0.212128 0.4677 0.445772 -0.0903339 0.210113 -0.187069 0.313404 0.142409 -0.0325327 0.649142 0.0236284 0.271 0.322417 -0.0217139 -0.248207 -0.0187815 0.0893584 0.116364 0.288238 0.123802 0.0251364 -0.203941 -0.118308 -0.238217 -0.264672 -0.298591 0.173839 0.00132154 -0.0910615 0.214305 0.00270054 0.319895 -0.11299 0.396839 -0.141203 -0.127561 0.213392 -0.231188 0.0639707 0.00138767 0.0730428 -0.00722227 -0.197614 -0.520169 -0.529547 0.225464 -0.126652 0.0146529 -0.313554 0.345055 -0.224335 -0.207285 0.179244 0.135236 0.35013 0.245919 -0.0631726 -0.121384 -0.411158 0.139915 -0.1642 0.241639 -0.122164 0.0321441 0.18283 0.168384 -0.161125 -0.321556 -0.0450466 -0.256285 -0.300385 0.502951 0.285612 -0.355267 0.0311577 -0.171127 0.101412 -0.0365417 0.0407318 -0.202229 -0.276799 0.171592 0.557903 -0.0329873 -0.138639 0.23327 -0.339631 0.128542 -0.39755 -0.19902 0.177034 0.0259203 -0.479276 0.0803412 -0.2643 0.31224 -0.686164 0.153475 0.208743 -0.218246 -0.0106688 0.362286 0.366699 -0.108354 0.10876 0.159672 -0.216587 0.428085 -0.180511 -0.00235013 -0.0560839 0.0454107 0.056896 -0.29492 -0.0709826 -0.13552 -0.292549 -0.0644692 -0.328889 0.224058 0.186926 0.0934715 -0.00600244 -0.10205 -0.00372594 -0.0668275 0.191653 0.0866758 -0.0734289 -0.197479 0.18067 -0.0403615 0.304669 0.0896233 0.00566565 -0.15821 0.264863 -0.0333083 -0.15515 0.164119 0.0556643 0.416089 0.0936572 -0.288605 -0.501913 0.203654 0.1978 0.0641309 0.189446 -0.149083 -0.0816725 0.0734762 0.221836 0.191479 0.427739 -0.410742 0.0048075 0.132878 -0.190881 -0.213479 -0.239628 0.00719319 -0.37602 -0.161682 0.0471038 0.458759 0.18115 -0.128219 -0.0574632 -0.147246 0.0607788 0.254728 0.0269804 0.0819568 0.0983945 0.081259 -0.0600293 0.26359 -0.354155 -0.319532 0.232224 0.169021 -0.289655 0.149272 0.0108436 -0.17882 -0.305889 0.125577 -0.31057 -0.246551 0.289187 0.277944 0.0554257 0.148559 0.109841 0.0481913 0.12892 -0.27336 -0.243468 0.268399 0.0626221 -0.0653501 0.191851 -0.580912 0.00403088 -0.0274921 -0.161977 0.0625168 -0.17321 -0.4753 -0.288915 -0.219638 -0.421587 -0.0779641 0.155142 -0.219274 0.281093 0.172397 0.503126 -0.336077 0.116298 -0.0841217 -0.227862 0.105183 0.431524 0.0414707 -0.0600931 0.25082 -0.165727 0.057705 0.165786 -0.340944 -0.297438 0.346962 -0.0113254 -0.611501 -0.352017 0.309916 -0.353966 0.317754 -0.562377 0.342579 -0.113405 -0.432637 -0.367469 0.317341 0.0630921 0.0133226 -0.123001 0.266423 0.310577 -0.503934 0.216867 0.0512505 0.0128888 0.00784836 0.197718 -0.457242 -0.215896
round 0.114296 0.0354304 -0.336038 0.283413 -0.0729066 0.394849 0.383445 -0.196567 -0.316095 0.00114493 0.130739 -0.0561451 -0.26408 0.237248 0.0933682 0.183923 -0.184631 0.0783625 0.191275 0.0919473 -0.182361 -0.316962 0.227148 0.15371 0.0292167 0.0925207 -0.346305 0.00270487 0.107664 -0.0685754 0.187625 0.419471 -0.548592 -0.102816 -0.542245 -0.000371323 0.0376985 0.275224 0.0244057 -0.323556 0.0416463 0.156815 -0.102252 0.0882249 -0.095569 -0.0284727 0.23028 0.19552 -0.114135 0.10066 0.00537472 -0.219814 0.225547 -0.192784 0.325845 0.0941434 -0.00718806 0.27413 0.0200065 -0.165748 0.0642022 -0.26288 0.0886377 -0.256584 -0.301897 -0.164413 0.130808 0.344651 0.119919 -0.254717 0.145683 -0.159876 -0.179876 0.0106976 0.0894996 0.106243 -0.34861 -0.112965 0.0836986 0.0615809 -0.0277968 0.129505 0.0661043 -0.248405 0.109589 -0.116294 -0.057688 -0.255861 0.468363 -0.112544 -0.526496 -0.208493 -0.168763 -0.46198 0.22515 0.18961 0.0563454 0.174846 -0.267241 -0.47755 -0.333347 0.606418 0.174893 0.00952854 -0.324585 -0.322724 -0.211236 0.139742 -0.175798 0.275633 -0.54237 0.0672185 0.448986 -0.430447 -0.0839335 -0.406455 0.0296236 -0.103005 0.0342356 -0.241623 0.0023721 -0.139179 0.180175 -0.2584 0.143565 0.0358903 -0.232763 0.0754519 0.361157 -0.038068 0.146952 0.039405 0.216969 0.00769887 -0.021346 0.100037 -0.0762537 -0.0982256 0.120157 0.391716 -0.195961 -0.0906768 0.0548472 -0.320255 -0.0506216 0.176885 0.199792 0.060363 -0.362109 -0.174903 -0.21005 -0.0637939 0.15982 0.239176 -0.151268 -0.0340727 0.0156914 0.216999 0.0854006 0.00956067 0.0715321 0.0737047 -0.186815 0.163616 -0.0635385 -0.148067 -0.224657 -0.0311688 -0.217355 0.118983 -0.0381135 0.239168 0.0579254 -0.0424056 0.326789 -0.056317 -0.00377023 0.222038 0.208663 -0.288803 0.0197013 0.045168 -0.16029 0.0237735 -0.374802 -0.263069 0.0755122 0.073742 0.210596 0.123687 0.242528 -0.0871195 -0.306562 -0.168066 -0.0219561 0.391356 -0.309088 -0.563568 0.201257 0.128195 0.568867 0.374882 -0.213372 -0.109855 -0.000987062 -0.195902 -0.195339 0.0934026 0.121156 -0.124548 0.0251872 0.176036 -0.27744 -0.101692 0.117084 0.146265 -0.353973 -0.40649 -0.0605623 0.144119 -0.116903 0.145284 -0.185877 -0.0201161 -0.0989922 -0.228593 0.104859 0.123488 -0.137169 -0.0233381 -0.29237 -0.0401751 -0.0580756 -0.0367131 -0.0619934 0.0921208 0.0744597 -0.0168481 -0.412198 -0.0536429 0.0681065 -0.0519825 -0.106707 0.283716 0.141975 -0.141517 -0.0861625 -0.0707738 0.419402 -0.272157 -0.188923 -0.28126 -0.0232881 0.240072 0.0937142 0.193821 -0.304031 0.119979 0.105634 -0.170649 0.0647299 -0.0327058 -0.16266 -0.0882764 0.0558114 0.131662 0.12709 -0.136874 -0.152431 0.0866301 0.180511 0.0965738 0.107277 -0.129028 0.0275786 -0.218953 0.190126 -0.0634572 -0.038012 0.0381917 -0.0228447 0.183625 0.279036 0.0210907 0.0376004 0.0704386 -0.301316 -0.290398 -0.0766774 -0.421036 -0.192175 -0.133673 -0.0427408 -0.0955334 -0.2345 0.13634 0.337441 0.415076 0.23443 -0.0388283 0.0630582 0.182268 -0.042937 -0.0103295 0.0602874 -0.0566675 -0.0766404 -0.269201 -0.0917068 -0.196516 -0.0577385 -0.197493 -0.0705339 0.184762 -0.0220491 0.0628203 -0.0106262 0.289934 -0.252964 -0.133594 -0.238696 0.0887443 0.0311035 0.00918547 -0.165754 0.439974 0.00822653 0.279505 0.158461 0.247895 -0.0484679 0.181462 -0.280096 -0.146313 -0.312695 0.0726556 0.464026 0.0174614 -0.0766469 -0.11405 0.0728581 -0.121001 -0.2961 0.0470064 0.0268777 0.039992 0.137781 -0.261703 -0.00452958 -0.154776 0.0112329 0.223018 0.251088 -0.0145971 -0.149173 0.227127 -0.00883963 0.407139 0.0251516 0.190353 0.255424 0.0137969 0.259455 0.309451 0.204666 -0.200911 -0.132525 0.0578416 -0.226281 -0.00226728 -0.106886 -0.224008 0.109951 0.0312909 -0.147269 0.0779487 0.262552 0.0117975 0.247 -0.513006 0.0484643 0.00372929 -0.24751 0.0320646 0.0491677 0.0693083 0.308126 0.0793427 -0.25854 -0.214357 0.119316 0.107309 -0.029937 -0.2824 -0.0173746 -0.0624988 -0.0488801 0.148924 0.0780444 -0.00894527
